675 64
c8be3251e1dd23b94f44ef6620a07f93 0.2236646 -0.16444631 0.15449926 0.2269466 -0.009462137 -0.32206437 0.2129945 0.058173507 -0.28216222 0.016267376 0.20719127 -0.267528 -0.19916277 -0.15282045 0.061147105 0.25608787 -0.060561903 -0.1425432 -0.09454771 0.28408572 0.18306263 0.39563578 0.24933994 -0.43526983 0.034633093 0.28902376 -0.21992777 -0.018772626 0.1389244 -0.1488164 -0.013102421 0.08715083 -0.14819457 -0.21436928 -0.3019311 -0.022545451 0.036867607 0.012401262 0.16561866 0.038318045 -0.017409448 0.094978966 -0.08020325 -0.18066694 0.19158219 -0.24535558 -0.06096877 -0.2091793 -0.025806796 0.17631686 -0.012594407 0.017737536 0.13845445 0.27499002 0.17546773 0.0198558 0.06785437 -0.2197883 -0.1891303 0.1796834 -0.09970396 -0.11232564 -0.006103158 -0.024024697
0d6b71c61ad6678dd1271dfb315d1836 0.19565986 -0.13956699 0.11732784 0.19431144 0.0007371261 -0.2606497 0.18852288 0.04772834 -0.24528757 -0.007746918 0.17412128 -0.22771138 -0.1447904 -0.14341526 0.058503244 0.2109222 -0.059943665 -0.1131694 -0.05346577 0.27724358 0.12631655 0.33965066 0.22016208 -0.38006943 0.014359669 0.27296633 -0.18767521 -0.025610482 0.13964732 -0.11530596 0.02247116 0.09422082 -0.15755658 -0.18911591 -0.26036787 -0.0066085486 -0.0050534075 0.029400103 0.14882204 0.044500735 0.021902764 0.057498753 -0.05419264 -0.1360918 0.165762 -0.22205698 -0.04451089 -0.21629456 -0.037485816 0.15420844 0.008605926 0.018187 0.13836588 0.2523832 0.12886688 0.020636111 0.05378836 -0.19439557 -0.1464298 0.11700347 -0.069967784 -0.09118763 -0.004775826 -0.0006216656
f1d70fda7b1974470795586987b53f4f 0.15204574 -0.09981741 0.11307209 0.13051857 0.0028142892 -0.22373764 0.14450003 0.027325833 -0.17317086 0.03056396 0.14803943 -0.1621807 -0.10829864 -0.123214185 0.028623933 0.17606303 -0.0492356 -0.07678957 -0.03722434 0.20554009 0.114197604 0.26559672 0.17767431 -0.311854 0.021556739 0.20929572 -0.15039234 -0.0032281573 0.12831923 -0.07781345 0.0043851817 0.084578276 -0.12607016 -0.1288934 -0.21371219 -0.021574216 0.017243186 0.028620442 0.12301881 0.021580998 0.016550696 0.06943044 -0.05167359 -0.1396088 0.14458318 -0.15307137 -0.03973201 -0.16981997 -0.032979894 0.09971979 0.014462837 -0.00077205285 0.07645403 0.19123274 0.11420328 0.0025505822 0.039581526 -0.14197755 -0.12692045 0.087523036 -0.059826046 -0.0837511 0.007413875 -0.007947908
8bc666c1bb1a04a9972b5726cd25664f 0.112462334 -0.09286507 0.061867263 0.10763071 0.0113698 -0.15524225 0.08526314 0.027612971 -0.13519181 0.014710722 0.08336212 -0.13519034 -0.07649582 -0.06676936 0.029684866 0.13125318 -0.047953032 -0.05732052 -0.04768021 0.14633077 0.099507384 0.19039263 0.13149665 -0.22526649 0.018967845 0.16613181 -0.122669615 -0.02504312 0.06241113 -0.07508986 -0.0039186077 0.028449876 -0.066546716 -0.10909009 -0.13056304 -0.0035015568 -0.0037391384 0.016699336 0.08995482 0.008448976 -0.010373676 0.036386326 -0.046309277 -0.088804536 0.094272755 -0.110210255 -0.021873131 -0.11483733 -0.026713723 0.08108294 0.0037756593 0.01885055 0.07491789 0.14243819 0.07937057 0.006123833 0.022788337 -0.10648511 -0.091034755 0.07387882 -0.060677372 -0.06901249 -0.017370734 -0.020503167
3fcf7ad31ca4f018e40142ffc846dccc 0.102094255 -0.08344903 0.050274733 0.09299636 0.00918719 -0.15674885 0.11497867 0.020250244 -0.14380205 0.03210427 0.11184568 -0.117896505 -0.10522783 -0.065631114 0.03824317 0.13150193 -0.027502852 -0.063766696 -0.04214032 0.15040143 0.10120383 0.19330911 0.11071819 -0.2085513 0.014123266 0.12053091 -0.120663434 -0.011474571 0.077446 -0.07966184 -0.012174126 0.02991302 -0.06111672 -0.09915625 -0.15206619 0.0023785797 0.031812202 0.0004421372 0.09603827 0.033958882 0.008914235 0.044702914 -0.016174857 -0.09993476 0.07368437 -0.09511237 -0.022770038 -0.11277656 -0.0094850715 0.06446018 0.008750817 0.016603947 0.077207536 0.11436948 0.094703965 0.019074352 0.034280803 -0.10869897 -0.0724027 0.077062815 -0.03131533 -0.063632295 -0.015936809 0.009095766
4adb53f3ed6a405120dfe1fd4bb841e0 0.114779085 -0.08275289 0.08795595 0.12466431 -0.017967148 -0.1542729 0.11631801 0.026190378 -0.13536124 0.014713441 0.099780075 -0.14148188 -0.10757793 -0.089405835 0.043006416 0.1449889 -0.0125222625 -0.08691909 -0.055223163 0.17070079 0.088023335 0.20863415 0.13467947 -0.23061237 0.03044301 0.1559275 -0.10375193 -0.02163305 0.07242813 -0.07599003 0.010679963 0.046261277 -0.10413253 -0.12203178 -0.16586557 -0.008702921 0.010503311 0.029401079 0.09758657 0.018040981 0.004846317 0.054491207 -0.021266347 -0.09048807 0.10748845 -0.13499321 -0.030621788 -0.1012184 -0.023251602 0.056751758 0.014554626 -0.0023723873 0.07179312 0.15664475 0.07702953 -0.0026195366 0.016741933 -0.09284651 -0.10544313 0.085536785 -0.057128374 -0.046055112 0.010867534 0.0018010477
df3de9d1893c28b017fad8508e9eedf2 0.09689791 -0.072273456 0.06875157 0.0968218 -0.002567871 -0.15878682 0.07487027 0.00538523 -0.12538199 -0.0023678655 0.1005741 -0.11711879 -0.07640749 -0.08836762 0.028869834 0.11032279 -0.037145738 -0.059580423 -0.039855648 0.12928127 0.07454135 0.17962743 0.09979486 -0.18406408 0.007696839 0.13082418 -0.106318176 -0.00531926 0.048547704 -0.050954677 -0.010872356 0.028936137 -0.07238566 -0.06997338 -0.11329283 -0.017210644 0.009617729 -0.006882743 0.08951391 0.037101574 2.9384426e-05 0.038225558 -0.023798574 -0.06287979 0.072219186 -0.10358463 -0.0059850803 -0.095413685 -0.011800807 0.053099956 0.019749258 -0.016173538 0.05683778 0.12416036 0.061677814 0.010768378 0.022047283 -0.09810138 -0.098598525 0.09236034 -0.032794777 -0.06354148 0.0077926377 -0.0044249506
6c3299dd30b70ac877f39de61874ed21 0.109895766 -0.08576353 0.071667545 0.10795977 0.020264944 -0.14957112 0.08640007 0.0029590046 -0.14277443 -0.01271305 0.081098616 -0.13013075 -0.07386506 -0.082132176 0.03322221 0.11533205 -0.037104346 -0.06455421 -0.016581899 0.15524247 0.06521435 0.18936549 0.09650225 -0.18270946 0.0026597714 0.14306118 -0.0931167 6.2112245e-05 0.060394928 -0.0409882 0.017094173 0.022432256 -0.08532237 -0.107612595 -0.12663296 -0.015612654 -0.005832408 -0.008392598 0.09176206 0.024183542 -0.016911801 0.029816743 -0.02240841 -0.0817545 0.09789091 -0.11784384 -0.021294309 -0.11880446 -0.00208301 0.07746707 0.0034226722 0.008520546 0.044417866 0.12665533 0.06643407 -0.008164105 0.0061933375 -0.09815299 -0.07437912 0.07701605 -0.052395456 -0.06559933 -0.010582147 -0.0075460114
a55a634d721066221561a7ac1b959ddd 0.09249972 -0.09784675 0.058019076 0.084756665 -0.009670037 -0.15611957 0.089274384 0.015798302 -0.14649375 0.0057633137 0.10311251 -0.109553084 -0.095687665 -0.08349968 0.036370315 0.102971144 -0.027002072 -0.049716644 -0.021741377 0.12533285 0.06623832 0.16549444 0.11426483 -0.18277209 0.023969494 0.15021683 -0.09334905 -0.022077043 0.09009379 -0.081057 -0.012224594 0.038879957 -0.077645086 -0.09774982 -0.14217126 0.0064668786 0.0058443006 0.007236486 0.08182761 0.005159134 0.017118974 0.050492197 -0.051032387 -0.07675063 0.11226825 -0.12936938 -0.039505243 -0.12337044 0.0024285184 0.0725644 0.019467307 -0.011156591 0.07205416 0.13631421 0.07705857 0.014497624 0.013579803 -0.11874236 -0.08174233 0.084763326 -0.02783447 -0.03753459 0.0018067406 0.011596087
f4ef86ec95f6212836aab13b0c73ce89 0.08313706 -0.063094385 0.05654743 0.09356335 0.013649113 -0.1561537 0.09844486 -0.009000964 -0.12706852 -0.009562657 0.07832396 -0.10740186 -0.09001642 -0.07146428 0.05085186 0.13585235 -0.041704126 -0.071838915 -0.016291738 0.14536309 0.064026855 0.16013238 0.10188585 -0.1997215 0.024837 0.11253414 -0.101955 -0.012291574 0.061898563 -0.053461142 0.0058607208 0.034921102 -0.07439709 -0.08206835 -0.11371747 -0.0053445394 0.0053533833 0.023456072 0.06924444 0.025021896 0.020549081 0.049177658 -0.022292694 -0.08780556 0.08799189 -0.10981185 -0.0015945258 -0.09911337 -0.013524321 0.06802995 0.0044117332 -0.015960557 0.0659821 0.116261795 0.07406661 0.020862615 0.015772244 -0.08336323 -0.09571669 0.08177582 -0.057501968 -0.06604164 -0.010341191 -0.018496953
d7a4862978222ad41d1e8b1f1d006acd 0.117723614 -0.084314786 0.07830817 0.07899265 0.010385446 -0.12046803 0.07372371 -0.0048405146 -0.1312867 -0.001963436 0.090305395 -0.13344137 -0.100781605 -0.06770379 0.015498707 0.099336915 -0.038012993 -0.08020409 -0.046697084 0.11930083 0.07074188 0.16268128 0.11768065 -0.18892324 0.002190316 0.1438918 -0.11016042 -0.023024485 0.050818812 -0.068455294 -0.0039040858 0.055641625 -0.07982985 -0.0770966 -0.1206185 -0.020964526 0.014913036 0.023242692 0.065422855 0.031782195 0.016037198 0.026375238 -0.043163147 -0.0712326 0.082710534 -0.12406666 -0.0016463952 -0.112728804 -0.027211413 0.07384125 -0.0045097508 0.004386415 0.056816865 0.1178623 0.06818978 0.013756696 0.04287362 -0.104350924 -0.08607267 0.07994585 -0.027697157 -0.058742423 0.016967067 0.010758127
6fb4a7b2bd6842045fcca6ff72c00112 0.084802076 -0.06653541 0.069325626 0.07997057 -0.0048804726 -0.14205901 0.0865246 0.013367774 -0.110888794 0.008960275 0.07735515 -0.11013252 -0.070317365 -0.07144446 0.018344654 0.091008514 -0.021923266 -0.043937042 -0.028637879 0.11642461 0.049323678 0.17423631 0.09639143 -0.16707644 -0.002568392 0.14661072 -0.10239477 -0.0045119203 0.063339844 -0.06342413 -0.003388707 0.03798483 -0.0829836 -0.079742596 -0.14489819 -0.0041847075 0.025127638 0.004158548 0.06442444 0.026102552 0.018424286 0.018102817 -0.042370323 -0.08117471 0.10369509 -0.09652628 -0.038158353 -0.10102885 0.002949692 0.055734757 -0.004691454 0.022356573 0.03880193 0.1259091 0.064502284 0.023620727 0.04222246 -0.09464809 -0.084409915 0.08242169 -0.038281612 -0.040313207 -0.020757461 0.009184563
58c49c51c26ebc2d74d752c5914a863c 0.0876596 -0.07729389 0.05846344 0.08608048 0.010515401 -0.12801434 0.07285821 0.018830072 -0.09103604 -0.003241084 0.07769003 -0.121428005 -0.08606383 -0.06769259 0.0068092872 0.10355144 -0.016569622 -0.060869247 -0.018181924 0.13698211 0.08183402 0.15038879 0.09867634 -0.18057434 -0.007590948 0.13296914 -0.08465284 -0.00968339 0.054400112 -0.06800399 0.005451304 0.0303908 -0.084084325 -0.06007318 -0.10669142 0.0085697165 0.020419026 0.01234995 0.08373939 0.006819357 -0.012725703 0.042788267 -0.024395071 -0.077818 0.094792895 -0.10057675 -0.0039362935 -0.08933912 -0.023791455 0.057414543 -0.012389402 -0.0041407524 0.056737937 0.12593056 0.07948722 -0.0070882607 0.029968396 -0.08060539 -0.08063796 0.048519425 -0.035893753 -0.059631065 0.016362377 -0.014880009
f03c825ec88e6ee2e3172662d7105824 0.11160341 -0.05288381 0.06366833 0.10604083 0.0035184163 -0.13009122 0.102291845 -0.0007829206 -0.13514885 0.016033197 0.090454996 -0.124049395 -0.08806898 -0.076157525 0.02938383 0.12602384 -0.03493162 -0.06796775 -0.034085415 0.14109264 0.07541774 0.16937068 0.11695293 -0.20223811 0.013569375 0.1359053 -0.08849126 -0.026881672 0.054685034 -0.072740525 0.018133529 0.03930719 -0.09545301 -0.091599554 -0.14228757 0.0022668163 -0.010145081 0.013984849 0.055893008 0.022565912 0.018350588 0.056240153 -0.042593196 -0.0892621 0.075792946 -0.1265644 -0.040108413 -0.107911795 -0.015543797 0.055436406 0.019442704 0.005479562 0.07712822 0.1263502 0.07355007 -0.008252989 0.023642188 -0.08810038 -0.09592012 0.074691825 -0.03672597 -0.05305189 0.018533725 0.006687422
51dc0784ffbb3ecf9c6bbd6f6f41b126 0.09714203 -0.053100355 0.06310082 0.07213571 -0.009912439 -0.14059164 0.06278257 0.033525568 -0.11509371 -0.0071445317 0.06764872 -0.09832479 -0.078216895 -0.07394308 0.029254798 0.09773191 -0.027688105 -0.05011704 -0.036364097 0.13491401 0.07460869 0.13458626 0.10820282 -0.18604428 0.013813035 0.12470963 -0.093478784 -0.012552776 0.079585 -0.06024059 -0.013655854 0.052285574 -0.07137595 -0.09209074 -0.09934435 -0.0066796406 0.018741017 0.02319599 0.054388408 0.027975637 0.0034664436 0.041875724 -0.023908751 -0.06327696 0.08262829 -0.085395485 -0.030752124 -0.102475956 -0.013597638 0.06803793 -0.004949173 0.016380018 0.06467584 0.12710801 0.06814321 0.024013605 0.021995062 -0.067204505 -0.06653007 0.053291123 -0.043944143 -0.05374582 0.014958577 -0.009392912
667677a6f6bdb491c7d4c02e05b93008 0.0762089 -0.040136244 0.069904536 0.073193364 -0.010671738 -0.124465555 0.06531903 -0.0050535495 -0.09785634 -0.006574404 0.07812325 -0.08291213 -0.075751945 -0.08336957 0.030967789 0.079342 -0.022355633 -0.05666251 -0.010119781 0.1098402 0.06721697 0.13597517 0.080113046 -0.14219452 0.013182509 0.09653864 -0.094160154 -0.0061347904 0.06847247 -0.04219671 -0.017092537 0.05475861 -0.051804855 -0.051687904 -0.08397487 -0.01969149 -0.010711722 0.026693514 0.08001511 0.019123193 0.016586553 0.028777694 -0.0039806957 -0.08010608 0.052252453 -0.09770775 -0.023135452 -0.06865444 -0.017305855 0.04134744 0.016852338 -0.0069984305 0.069540314 0.08839661 0.060205616 0.016120492 0.02640245 -0.076893024 -0.055498205 0.042200323 -0.044007324 -0.045847394 0.013168098 -0.012857498
604bce7af3856c26c3f09f47435c8da0 0.075791076 -0.057123575 0.05783215 0.079734385 0.015889302 -0.1147359 0.0718909 0.017008455 -0.09175086 0.02115947 0.08663141 -0.09295776 -0.07341973 -0.06662701 0.019800154 0.10616363 -0.029293332 -0.05801346 -0.04449772 0.13443337 0.056364376 0.14092581 0.08675466 -0.17718686 -0.0072822385 0.11695156 -0.09442751 -0.012432436 0.043452967 -0.046303876 0.0029792255 0.034548 -0.07577486 -0.08142552 -0.10252212 0.00028215494 -0.008959628 0.0033462392 0.0690622 0.02262466 -0.01397505 0.040649783 -0.03851913 -0.08040208 0.08264055 -0.10295338 -0.0107408045 -0.07040043 -0.02035978 0.08318484 0.0048483843 0.017896855 0.06768546 0.089296475 0.054327007 0.022336092 0.032994483 -0.06461379 -0.060887173 0.08047756 -0.057585806 -0.03228876 -0.005182485 0.00339033
a75f1c4c9884157125791c25487c5034 0.10504995 -0.05822593 0.06997233 0.085740305 0.002393032 -0.11057503 0.06974194 0.018876359 -0.093411066 -0.0013948758 0.08443532 -0.12471627 -0.059945293 -0.04913301 0.032035757 0.11920242 -0.026292728 -0.064969584 -0.037040725 0.13147278 0.056440867 0.14736123 0.10553674 -0.17097782 0.002404719 0.11854944 -0.07615762 -0.02082641 0.053666987 -0.06456822 -0.009363457 0.018933838 -0.07633354 -0.10005087 -0.12048859 -0.02304112 -0.0110946195 -0.0075442903 0.05072175 0.028101716 0.009124852 0.03504779 -0.0336005 -0.083795816 0.08149216 -0.095575064 -0.021951262 -0.09494412 -0.014579148 0.06607666 -0.014050312 -0.009796892 0.043179743 0.1140448 0.06749843 0.02447856 0.016003046 -0.0908899 -0.060772367 0.065258436 -0.045503765 -0.031034488 0.006289048 -0.017754724
c95834af4bbb13a26d5b61dd7118efcb 0.10146455 -0.057092097 0.043997496 0.0852909 0.004114309 -0.11001205 0.07333426 0.010041028 -0.103832304 0.0075533986 0.075057395 -0.110480696 -0.086233646 -0.05109829 0.039995063 0.12140446 -0.042104356 -0.046864614 -0.037806276 0.14006382 0.07009848 0.16070609 0.10032697 -0.15566197 -0.0017568436 0.13302054 -0.09071777 -0.023911513 0.05561437 -0.03463464 -0.013128825 0.030013535 -0.05333281 -0.0810969 -0.12927382 -0.019791262 0.02035619 0.019223932 0.069802746 0.013225387 -0.013943277 0.03564432 -0.014656894 -0.07838029 0.06060491 -0.09923633 -0.030305019 -0.09797012 -0.017091593 0.05289932 0.02038403 -0.018381929 0.06670548 0.11779774 0.05778582 0.026302991 0.040987834 -0.09394243 -0.08417702 0.051594887 -0.052268807 -0.049527507 -0.009172897 -0.018164169
a27fece9f0b9caa08a841a632fb4f202 0.08815241 -0.0576562 0.06853824 0.076811425 -0.009652965 -0.11829692 0.08044684 0.029370843 -0.107834555 0.020461068 0.05789539 -0.08414465 -0.07588563 -0.04486303 0.01059793 0.102535576 -0.01930573 -0.051672455 -0.0388 0.094241366 0.052004408 0.13467629 0.091326766 -0.16799586 0.0038956795 0.12619813 -0.08618446 -0.013306276 0.03998692 -0.07371317 0.01767969 0.020051664 -0.07567534 -0.06596877 -0.09881507 -0.022663765 0.006663668 0.00019141569 0.06258306 0.0028513516 -0.0016787276 0.03903319 -0.0067714294 -0.05077666 0.052671984 -0.107220374 -0.0024031124 -0.08510526 -0.023246625 0.06090204 0.022289893 0.0025133647 0.035173696 0.11020867 0.070521235 0.020191483 0.031839225 -0.09261451 -0.07286201 0.058947932 -0.027655585 -0.060963444 -0.014887637 -0.0031759553
ab772e99238e8b3ba94027fb7fbaa79d 0.06291898 -0.046075094 0.039755218 0.08237738 -0.0076440517 -0.109281756 0.08371665 -0.0011937519 -0.102920815 0.0057611726 0.06517415 -0.09428664 -0.05254045 -0.06917221 0.034737892 0.09365053 -0.0073667895 -0.039738 -0.016395276 0.1198708 0.03614584 0.14726397 0.06368596 -0.14686155 0.00294356 0.08722624 -0.085847326 -0.021463435 0.038944382 -0.04252752 -0.009699005 0.03488169 -0.06956569 -0.06901514 -0.07938919 0.0069227745 0.016664173 0.012622605 0.058611717 0.011054583 0.016024256 0.032516956 -0.0067175864 -0.04914064 0.078237206 -0.06704121 -0.028163312 -0.08819083 -0.008118862 0.06433106 0.01828128 0.002459242 0.06266963 0.08162052 0.05650869 -0.0038670942 -0.001449738 -0.050793298 -0.060506884 0.0526149 -0.040262226 -0.04414032 0.0070213466 0.004466529
64e358051c7d611eea3cc338c29bc734 0.07840569 -0.07747639 0.041639995 0.07491 0.017465144 -0.11725826 0.07261368 0.019062884 -0.11916959 0.011068708 0.06464745 -0.09423865 -0.05677542 -0.062028345 0.020010186 0.11147889 -0.012342927 -0.036820803 -0.02014169 0.13467571 0.077033654 0.14216633 0.10896848 -0.14495479 0.026294762 0.10634993 -0.08381806 -0.01675677 0.040005364 -0.040146697 0.021205505 0.054690782 -0.061797507 -0.061597165 -0.10211838 -0.014749226 0.015420723 -0.005849046 0.07723058 0.031434793 0.010823826 0.035885066 -0.0038518002 -0.04662473 0.07074202 -0.108495675 -0.0019695035 -0.07149527 -0.0069226814 0.059601054 -0.0136142345 0.0015137112 0.07300619 0.09227849 0.04340782 0.02727305 0.03452158 -0.05819052 -0.06644252 0.040582087 -0.014084087 -0.055051852 0.0148864435 0.007170437
e1515998bb7db90520327ee8c725abb0 0.10800667 -0.08322828 0.07047719 0.06445984 -0.013434208 -0.14332809 0.071305975 0.022682214 -0.087973855 0.002501337 0.084439024 -0.108237244 -0.051672984 -0.05217316 0.028324228 0.0985278 -0.041356284 -0.04291549 -0.023689399 0.11538407 0.079543665 0.1429483 0.073206276 -0.17659457 0.015733037 0.10046365 -0.093865864 -0.028885802 0.08133583 -0.035428695 0.0034950373 0.04861842 -0.045483723 -0.0782943 -0.106928505 0.0005740007 0.016020177 0.026954973 0.055159915 0.017112687 0.0032976829 0.041506797 -0.014500437 -0.0585283 0.0848195 -0.11144485 -0.030416144 -0.10718449 0.0070958193 0.06890694 0.002803047 0.011434211 0.03638814 0.09548486 0.06987812 0.01884297 0.028642131 -0.06798878 -0.07436698 0.055725675 -0.035995197 -0.049585458 -0.009010629 -0.01940492
eb994f0ddf1b56966767421101be8ff2 0.10156596 -0.06637379 0.045872282 0.058975168 0.023155961 -0.11396476 0.07826923 0.01772499 -0.11595579 0.009366432 0.08047169 -0.11236157 -0.058646098 -0.057603035 0.042030975 0.11032412 -0.032812107 -0.066654794 -0.011310363 0.113747634 0.069221504 0.15579253 0.09316004 -0.17852935 0.009066374 0.12960143 -0.09735227 0.013361487 0.043076117 -0.036053713 0.009533293 0.054646745 -0.07084058 -0.0850439 -0.12178811 -0.0008596551 -0.0026261215 0.026297538 0.05038961 -0.0014497633 -0.010583971 0.048108306 -0.041579 -0.07630063 0.060574427 -0.07768337 -0.010637207 -0.07596396 -0.021988373 0.075756595 -0.013315426 0.002914734 0.04130337 0.10137131 0.053742953 0.026538612 0.01920723 -0.09763485 -0.08002531 0.048535418 -0.033417426 -0.018317439 -0.008863035 0.014812056
f766b8340e9f878a5d035accbe119063 0.094944246 -0.068749584 0.03265155 0.092008196 0.019435873 -0.11664861 0.05513914 0.029579656 -0.086291455 0.026945865 0.04789061 -0.11308086 -0.06332224 -0.07840742 0.017155627 0.08492355 -0.0058531784 -0.03185989 -0.032324206 0.11704 0.07402829 0.1323957 0.10471538 -0.13669877 0.015597382 0.09895803 -0.08694492 -0.017495299 0.0718135 -0.060946953 -0.004747003 0.04830244 -0.054535713 -0.059230622 -0.12007555 -0.012899513 0.01573178 -0.0032333664 0.073008634 0.03510955 0.00019856867 0.028261265 -0.022361875 -0.07131915 0.049887925 -0.08236375 -0.027951809 -0.07198169 -0.023525584 0.06483161 -0.010120811 -0.0104375165 0.067848556 0.115494914 0.048017453 0.016983457 0.010030751 -0.0922727 -0.077601664 0.0731864 -0.020131763 -0.020877097 0.014615523 0.01137259
af632e5397746637e7ecca226979e39c 0.0888601 -0.079130314 0.06421512 0.078961514 0.015033981 -0.10863824 0.0680945 0.029179702 -0.097537674 0.0017214693 0.0579644 -0.11662002 -0.08392752 -0.044539794 0.00872623 0.12619168 -0.045796335 -0.056631666 -0.035859786 0.09696373 0.07763073 0.15977225 0.09557764 -0.15229009 0.005672473 0.12562 -0.06672911 -0.03434256 0.044113874 -0.04676637 0.0074684485 0.021506958 -0.052053627 -0.089507304 -0.10718829 0.004553334 0.019666148 -0.002265373 0.03991236 -0.0018309755 0.00422857 0.014861813 -0.041612644 -0.0530665 0.08557435 -0.08268559 -0.033871487 -0.10097259 0.0065597766 0.06922199 -0.014565967 -0.01610354 0.057213932 0.10891045 0.061900362 0.012592163 0.008516194 -0.0976105 -0.08435612 0.06114735 -0.032089602 -0.032372653 0.005721938 0.007980092
b9fcc8c319c87f9ac7eade69847c8b89 0.08552771 -0.05418679 0.03317872 0.09713279 0.01900956 -0.104566105 0.09603951 0.032967865 -0.10577172 -0.00037109564 0.07395268 -0.12279162 -0.05337754 -0.07869384 0.041794285 0.08713373 -0.020239037 -0.07024886 -0.046736717 0.10032145 0.041819956 0.1487853 0.07550204 -0.17111823 -0.002905208 0.10411412 -0.06884823 0.0050988393 0.077526346 -0.0381371 -0.009424939 0.050054085 -0.08634105 -0.08218258 -0.12509568 5.027142e-05 0.010293367 0.026245417 0.06453354 -0.0027662741 0.02440105 0.01803172 -0.0017066178 -0.05576837 0.06884058 -0.09886105 -0.028516455 -0.10394527 0.00793871 0.054834627 0.017278653 -0.014633473 0.05765871 0.10022398 0.073985696 -0.009795826 0.035713647 -0.09158707 -0.081841975 0.044799488 -0.04257075 -0.050945055 -0.002440268 -0.020701356
9ff4768155106fc0642e574aac4d6386 0.07430795 -0.058574274 0.0401565 0.076828025 -0.014325305 -0.11096412 0.07989886 0.028427621 -0.1106852 0.01706973 0.07285571 -0.09593204 -0.047083985 -0.07390086 0.03791212 0.094108745 -0.020884056 -0.053407986 -0.03150492 0.09545675 0.056252934 0.1286342 0.09549127 -0.11890643 0.027822604 0.091087 -0.055434827 -0.009360929 0.058538266 -0.039768938 -0.00061578077 0.037988394 -0.05901087 -0.07590898 -0.11642001 -0.011026777 0.021603508 0.005107069 0.05796454 0.021875788 0.01869582 0.0050575035 -0.015532292 -0.070505284 0.07336138 -0.061198596 -0.0042881323 -0.061494716 0.0067426553 0.06518766 0.017008582 0.023015376 0.038373355 0.109260984 0.060882684 0.0022939653 0.038220994 -0.061875645 -0.03874288 0.059649643 -0.009608522 -0.03650252 0.018912783 0.004030582
737dcb8a3488608f3030696196da3fd0 0.10082223 -0.065425836 0.066147126 0.08352677 -0.0054234434 -0.124787115 0.083998695 -0.0063263327 -0.07462516 -0.01597853 0.04391276 -0.08375034 -0.049563196 -0.07338736 0.030231679 0.11373685 -0.032555897 -0.05802878 -0.047300898 0.10457848 0.06645764 0.17046335 0.10054106 -0.16041937 0.017928738 0.13676827 -0.062812224 0.0100521725 0.070530586 -0.06846384 -0.011725498 0.017562317 -0.043653365 -0.08095248 -0.13170315 0.017792756 0.026841423 -0.005233677 0.08697291 0.012072047 -0.011246236 0.020741295 -0.02916998 -0.08469142 0.084360115 -0.078266375 -0.0067230524 -0.10920374 -0.022813037 0.048476096 0.020593788 0.01623805 0.03280058 0.11140893 0.036908764 0.009856026 0.040630993 -0.08170541 -0.086207785 0.048754137 -0.037878174 -0.051915806 0.00428395 0.012622445
a140cfbf8e6e5c01ce688e1413bf4bd9 0.06413881 -0.0483643 0.06600699 0.07142387 0.00171 -0.08115858 0.089228846 0.030016897 -0.102602944 0.024568416 0.0772396 -0.06329966 -0.064191386 -0.041185755 0.034771666 0.07351849 -0.0069350684 -0.04068824 -0.0050384146 0.08628835 0.047571093 0.13643134 0.05478722 -0.15236531 -0.007688682 0.09349069 -0.074370556 0.008389268 0.069141105 -0.048765045 0.0030620396 0.036573336 -0.05785883 -0.07862078 -0.07631903 -0.016108377 0.015456572 0.027974816 0.057473134 0.018612646 0.010031721 0.025373893 -0.008421812 -0.04946971 0.07447979 -0.067071244 -0.011256365 -0.05705828 -0.026859498 0.06388435 0.019932102 -0.0020361892 0.04739669 0.0790049 0.051409405 0.010720204 0.036378916 -0.066537455 -0.053975556 0.054437954 -0.012121715 -0.053650588 -0.01332135 -0.009748376
bc0072b7c96ae47c28e8f1a394b0981b 0.06652598 -0.036551613 0.014514861 0.062460214 -0.019438848 -0.09323132 0.064317614 -0.016532203 -0.08376516 0.024449665 0.05750937 -0.104487956 -0.057678986 -0.060186338 0.00041842542 0.10626788 -0.039414365 -0.05608931 -0.03178585 0.08393781 0.0577961 0.15564957 0.09150775 -0.12550129 0.002230458 0.097797684 -0.08340988 -0.030388251 0.062073816 -0.041699763 -0.030225975 0.021921543 -0.08207805 -0.0742639 -0.0888448 0.01177727 0.020270774 0.0059651094 0.08209605 0.01816904 0.0003373272 0.0072451695 -0.01945601 -0.063352495 0.07111883 -0.06352434 -0.034991685 -0.089714155 -0.028806364 0.03505361 -0.01316446 0.0030314936 0.056009572 0.08146213 0.04179115 0.0065486273 0.02571281 -0.060218178 -0.07501017 0.04943169 -0.05242471 -0.043912094 0.00297853 0.00045180673
2ba473ba9442d2fafd3db863448ad339 0.08281277 -0.04560174 0.041952174 0.045554888 0.0022353907 -0.11738632 0.060340185 0.007967343 -0.10283164 0.025127716 0.031159608 -0.10411115 -0.07370503 -0.03330602 0.037415445 0.09920259 -0.012533196 -0.04070698 -0.027653428 0.11782214 0.04775181 0.1251677 0.06366412 -0.12119421 0.021546278 0.08927209 -0.057633113 -0.009412157 0.05629649 -0.024509685 0.011397795 0.013783745 -0.06346421 -0.0426387 -0.10793459 -0.001524495 0.00012141044 0.014851986 0.031632524 0.03537053 -0.0016921967 0.008720125 -0.011074302 -0.05766786 0.041240785 -0.07916118 -0.012713843 -0.09460022 -0.0062162643 0.054601286 -0.0009120044 0.009080833 0.04201916 0.104668066 0.04631141 0.007805537 0.026628556 -0.06422938 -0.07564944 0.063287474 -0.029917482 -0.059296764 -0.012007448 -0.019521946
daf1bad2dfd257d27a157401ac2b728e 0.07637281 -0.040727362 0.055262268 0.049449004 0.0025065627 -0.095003754 0.05019216 0.025758667 -0.07630125 -0.0029405255 0.044798214 -0.09097595 -0.05831246 -0.032949395 0.031649448 0.06727904 -0.038399633 -0.029849412 -0.026446912 0.08587848 0.05828631 0.104558125 0.07919857 -0.13106202 -0.0066739144 0.08963117 -0.056583155 0.010086902 0.046852894 -0.03116991 -0.0074605746 0.02401009 -0.058006026 -0.05898894 -0.09323123 -0.010749081 -0.0077716573 0.023866272 0.052835524 0.010586119 -0.007520157 0.040609445 -0.03292105 -0.045776118 0.061428618 -0.056518253 0.00043680848 -0.07220432 -0.008446263 0.046110734 -0.017683119 -0.0022776932 0.04379896 0.093582064 0.065238394 0.026945572 -0.0004723766 -0.05241305 -0.066917874 0.047155835 -0.028668696 -0.018565157 0.009552512 0.0053634965
1aaeab6f2ee5aea0c79136cf330d7c8c 0.097194254 -0.049198985 0.024687618 0.050306607 0.009650903 -0.11896415 0.053280544 0.020585844 -0.09629117 -0.01063471 0.055781007 -0.08336958 -0.053417653 -0.042535838 0.012390798 0.091696806 -0.0027965694 -0.03932156 -0.012234517 0.085958816 0.06392068 0.107828915 0.081788756 -0.16187242 0.0054104053 0.07309455 -0.06760705 -0.018230202 0.044258073 -0.038786862 0.0071748635 0.022695366 -0.06894749 -0.078277916 -0.08931307 -0.0185601 -0.008336995 0.0027001312 0.07234012 0.027813215 -0.02047971 0.032661326 -0.0332706 -0.07179984 0.06114612 -0.07756097 -0.032386288 -0.08958809 -0.017838744 0.06969869 -0.015724923 0.021720782 0.047192108 0.09269401 0.067008816 0.01729098 0.0115421815 -0.053228118 -0.052571848 0.068918705 -0.03088196 -0.048530556 0.009773904 -0.016614174
13e3d0d4ab2c5aad217f7a2e8b774fdc 0.07356676 -0.04091299 0.05009165 0.08864339 -0.018635135 -0.11327438 0.08893342 0.010400589 -0.10889914 -0.00029480763 0.06747045 -0.09201048 -0.07284415 -0.04415988 0.04757995 0.06908205 -0.01793925 -0.053432416 -0.03557008 0.0932363 0.0389118 0.15203191 0.055920377 -0.1328303 0.007906883 0.099155016 -0.06734088 0.014743881 0.051287156 -0.05327054 -0.0032955538 0.032226603 -0.060601704 -0.07947999 -0.10384024 -0.02215494 0.016514719 0.017657707 0.07588785 0.027353799 -0.005579352 0.034171224 0.004558602 -0.04952474 0.072738156 -0.06619406 -0.03417339 -0.04877982 0.0062112925 0.065386675 -0.008773845 0.012167607 0.059427608 0.08784068 0.03478893 0.017525557 -0.001183332 -0.07704965 -0.053940088 0.07628795 -0.011081677 -0.05103066 -0.019767325 0.023029596
749dd05090a546aed816e938a69dcecc 0.09255667 -0.0644256 0.033508454 0.062891245 -0.0062630866 -0.10670497 0.06774894 0.0165403 -0.09700198 -0.0056479573 0.08276038 -0.10035736 -0.07462637 -0.037581943 0.03012494 0.11134497 -0.033154853 -0.057591774 -0.026244836 0.10058722 0.03832366 0.124702364 0.085616186 -0.13405702 0.016933307 0.10674576 -0.08115919 -0.013042869 0.0447226 -0.032847017 -0.011667977 0.035158005 -0.05887854 -0.081306905 -0.11845959 0.00495668 -0.009092361 0.0060532326 0.057345558 0.028136352 -0.013093359 0.03593505 -0.0064562894 -0.070251614 0.062166575 -0.069720514 -0.008047991 -0.076201454 0.0013526458 0.05679216 0.002666033 -0.004247631 0.032812323 0.10161903 0.056978747 -0.0042569535 0.01574533 -0.07169714 -0.06304497 0.06971277 -0.038696226 -0.047950324 0.01723271 -0.016617944
e17b6faed5b9bc10989c18c4785fa609 0.06288394 -0.06371614 0.024152715 0.078305334 0.005128429 -0.13258095 0.061689816 0.008187788 -0.10514542 0.008522968 0.0855538 -0.08980993 -0.05565226 -0.08115195 0.048535734 0.0934164 0.002454726 -0.04056551 -0.023147117 0.09194283 0.04784127 0.1723516 0.07723669 -0.1592687 0.029190086 0.10072631 -0.05706965 -0.015027944 0.03314879 -0.061409585 0.00044896445 0.008720414 -0.04320797 -0.06264764 -0.13521282 0.011801415 0.027606703 0.014256112 0.07420743 -0.010779594 0.004965544 0.0109190205 -0.033711933 -0.059855472 0.06527971 -0.09477268 -0.006614716 -0.08587331 0.0029676757 0.07649733 -0.0032937366 0.016328014 0.06440348 0.12730187 0.06591522 0.0035291319 0.0059888596 -0.07401253 -0.07600565 0.08597406 -0.029663244 -0.037392974 0.01224302 -0.024608048
36f618cf3d08d89eba7730a6f982a3e9 0.08236804 -0.029263493 0.03890493 0.0677661 -0.012544189 -0.109107785 0.08347935 0.0032481411 -0.07365368 0.012645755 0.053879116 -0.076992854 -0.06476493 -0.053821675 0.030288408 0.09903995 -0.016580502 -0.04071682 -0.042341545 0.117593445 0.03522395 0.1386264 0.080310576 -0.15338929 0.0012926928 0.07307782 -0.07909661 0.010021756 0.06973795 -0.040599257 0.0020398106 0.042766932 -0.05866002 -0.06020079 -0.09033391 -0.018562278 -0.015359445 -0.021720687 0.0766331 0.027829686 -0.014674902 0.0069150073 -0.019969951 -0.050047584 0.05766399 -0.0718377 -0.019594127 -0.062273744 -0.006318196 0.07435178 -0.018857475 -0.004237079 0.025217995 0.08366511 0.034091983 0.018053845 0.0067327325 -0.07362171 -0.050543796 0.030528557 -0.023251584 -0.054774925 0.027765991 0.014895277
bd3b886958d40b9832ca81161cf064f8 0.07259716 -0.041158956 0.053970445 0.057525452 0.023002276 -0.12098054 0.08134564 0.015253716 -0.09223124 -0.0021168715 0.081549704 -0.09351068 -0.04501512 -0.064237915 0.037882194 0.077553675 -0.002663361 -0.050298788 -0.0113744605 0.113174975 0.055516392 0.12806739 0.08359458 -0.1217312 0.021640778 0.10995914 -0.05577047 0.0059930887 0.066786334 -0.044421703 -0.0009981304 0.036088716 -0.053210236 -0.061857417 -0.110800266 -0.02767479 0.001286889 0.027963495 0.045837704 -0.00016840192 0.012091007 0.030582925 -0.014533264 -0.04842184 0.065246336 -0.069182895 -0.013558394 -0.06899352 0.007581231 0.056727655 -0.0077758012 0.016978398 0.05729605 0.093090475 0.04461346 0.012872663 0.030359346 -0.053191368 -0.05915565 0.031026736 -0.02753812 -0.03848709 0.0066853557 -0.026203193
50d9e48c593e4750ccdd6abe2a3811e7 0.09435015 -0.06936263 0.059894204 0.046048205 0.023412827 -0.09199749 0.07113998 0.002547788 -0.09187654 0.00085903384 0.04532672 -0.08102962 -0.057585478 -0.04930205 0.009827189 0.11248572 -0.022739796 -0.053130757 -0.045306392 0.112619735 0.06608748 0.14980313 0.0650849 -0.15326618 -0.008102798 0.090997085 -0.091766216 -0.029429829 0.044528123 -0.03954374 -0.019677475 0.016915701 -0.049996324 -0.043539513 -0.09368386 -0.004623303 -0.009750664 -0.007848527 0.05074598 0.03612485 0.01983178 0.020915452 -0.021364443 -0.0811246 0.0613609 -0.09226694 -0.003278289 -0.08328038 -0.018870512 0.03817564 -0.0035584758 -0.022476014 0.048918266 0.07927476 0.03898439 -0.0054987115 -0.005340671 -0.07111641 -0.062132306 0.047752466 -0.053151798 -0.046498258 -0.01896791 -0.0027967803
4b4cffec8a6ba97c53b858d5a773766f 0.091871664 -0.066032425 0.046075687 0.08104158 0.017513948 -0.094767466 0.105217405 -0.018411743 -0.11698674 -0.012137647 0.050215747 -0.110817045 -0.0842021 -0.062467683 0.037127897 0.089541174 -0.033889804 -0.046992 -0.018893117 0.11901591 0.071627684 0.15495493 0.08064023 -0.14180733 0.0047894944 0.10212447 -0.059605222 0.012325337 0.03776799 -0.037263792 -0.0058498844 0.02692704 -0.041437965 -0.072795786 -0.102825016 -0.0326297 -0.02203395 0.026976403 0.042682827 0.029759068 -0.011123933 0.021938976 -0.03623824 -0.03419522 0.07870868 -0.07306618 0.0041217436 -0.084051006 -0.034591813 0.07994022 -0.011808086 0.012977195 0.06871372 0.09366382 0.03325914 -0.00069597724 0.028383983 -0.08968448 -0.06413422 0.042777598 -0.02134232 -0.042597007 0.030937992 -0.01699089
9bae94c1e2a3c7e3315aacb153cba219 0.060050093 -0.075842604 0.037288014 0.08721659 -0.00084976514 -0.08905851 0.089477606 0.019662471 -0.094883315 0.022476034 0.06300997 -0.0796929 -0.08674752 -0.053935595 0.027509259 0.09216601 -0.0089859655 -0.05958364 -0.029018236 0.109791 0.0559857 0.13083418 0.09627812 -0.16700761 0.025807573 0.10352232 -0.066996105 -0.00406277 0.047936875 -0.04303989 -0.0010860185 0.045930065 -0.054868676 -0.07708104 -0.124608904 -0.029496482 0.0027171688 -0.0006066608 0.05342045 0.008398072 -0.014141892 0.027658807 -0.010708122 -0.05904646 0.053333975 -0.07669143 -0.017497865 -0.09656589 -0.018196631 0.05918335 -0.0067623793 -0.017712228 0.070527 0.10471723 0.048176307 0.019440437 0.02173356 -0.06411656 -0.06800138 0.0705991 -0.037029017 -0.05074141 -0.0031544403 0.013552007
3bd56bb9a6a6d1da3d55d62a4513ed39 0.07913377 -0.05210881 0.06219181 0.05515979 0.0024777807 -0.12383683 0.05220251 -0.012156159 -0.086008616 0.0061328597 0.07789236 -0.08963151 -0.062672704 -0.047168545 0.018212087 0.09509565 -0.0063833445 -0.046760272 -0.010171244 0.0912147 0.067712076 0.1423897 0.085309274 -0.16180027 0.0023428542 0.09830075 -0.08781291 -0.023263063 0.059762876 -0.058910187 -0.015700284 0.04236949 -0.064876825 -0.042124268 -0.09593184 0.0020131888 -0.0018081471 -0.004220052 0.038807888 0.020762922 -0.0051044477 0.02043809 -0.0043417765 -0.07626469 0.051306892 -0.093666956 -0.028121259 -0.093831964 -0.017316736 0.06941186 0.01652158 -0.0117518855 0.034065392 0.080070995 0.02629803 -0.00474295 0.0045356276 -0.062425353 -0.07762506 0.06095892 -0.02731407 -0.027870342 -0.0016216299 -0.022309931
4f6395fc06989b2c7d5d80e45f9770e1 0.07897117 -0.063162826 0.05363655 0.0725397 0.018515706 -0.10086538 0.056952246 0.02254111 -0.1004323 -0.017522024 0.06187249 -0.08677595 -0.06777137 -0.058214128 0.00094599085 0.07944377 -0.019880008 -0.05053806 -0.015007293 0.10494803 0.061275955 0.10050375 0.06139776 -0.14859493 -0.011563263 0.08404025 -0.06984948 -0.028782343 0.028184889 -0.04032459 0.012810108 0.026135571 -0.026417967 -0.07696488 -0.098947726 -0.011792842 0.026084857 0.0046739737 0.05747735 0.015564795 0.008087675 0.0046711173 -0.009349934 -0.04026663 0.07053226 -0.06721079 -0.030545777 -0.07668725 0.008392163 0.044262778 -0.015271256 0.007235463 0.02836094 0.09624282 0.056579612 -0.0042065033 0.017384531 -0.05265378 -0.063222714 0.04900655 -0.008498668 -0.016145846 -0.021929754 0.014052002
c50d6e0c2a53a643e8d8e4d09ef4a213 0.09496904 -0.05947223 0.04820752 0.06326603 0.01678137 -0.106336184 0.08064096 0.02278423 -0.085591234 -0.011307823 0.057733193 -0.08629586 -0.055774335 -0.043807533 0.047915272 0.094645426 0.0020516021 -0.064512394 -0.03941378 0.102216914 0.058146425 0.12404276 0.062595025 -0.14593203 -0.0065048924 0.11106565 -0.06205598 -0.02357391 0.053088173 -0.034426607 -0.013584593 0.014963917 -0.04949453 -0.039765555 -0.11056549 -0.01121002 -0.011779037 0.008552909 0.06336118 0.006077738 0.0015157623 0.036819767 -0.035049364 -0.043145888 0.07417988 -0.10001335 -0.020333821 -0.060416162 -0.03048383 0.03920528 -0.017916087 -0.012165206 0.06870331 0.10644398 0.052980147 -0.012681438 0.02386988 -0.0528105 -0.06509485 0.031963784 -0.03574151 -0.03377719 -0.011866716 0.0019674797
b3320b5bb11135af806b299cc77609f3 0.07008446 -0.06470816 0.020709556 0.0723479 -0.016288472 -0.11030247 0.073120385 0.007327306 -0.091678925 -0.011516133 0.054474752 -0.0635865 -0.07021865 -0.061464205 0.013977247 0.0684825 -0.03483808 -0.062094312 -0.003117719 0.105756074 0.03962319 0.089263 0.064391635 -0.12943685 0.0337482 0.09196032 -0.07833885 -0.018262 0.01742561 -0.034237772 -0.006590294 0.01785906 -0.027256535 -0.04228148 -0.07489943 -0.02881895 0.022983711 -0.018909791 0.037388183 -0.0006069573 -0.0009054924 0.014965476 -0.019764308 -0.047078896 0.08026137 -0.0561886 -0.01411117 -0.046863027 -0.0052803676 0.044424605 -0.009488541 0.014890101 0.022010742 0.076134466 0.057119247 -0.0027099533 0.017303089 -0.072250985 -0.039799783 0.06820402 -0.045024816 -0.042135634 0.017321326 0.0021801882
13e15133438852e6fa5636af85d3f3e6 0.06494813 -0.048779063 0.019677764 0.09157303 -0.0037042552 -0.111772954 0.07319047 0.009078326 -0.109201655 0.0152692 0.05726929 -0.09646148 -0.046636246 -0.03514798 0.041723166 0.086473994 -0.017280899 -0.06717741 -0.014531943 0.12364264 0.054624632 0.12449349 0.0710897 -0.13867943 -0.0054903817 0.10640936 -0.06569474 0.008084919 0.034594197 -0.058619376 -0.015437424 0.010112529 -0.046497155 -0.052796632 -0.09164082 0.0074129077 -0.01874561 0.0042694276 0.036039636 0.028716508 -0.001233337 0.04823291 -0.024137469 -0.04000874 0.070963986 -0.08113844 -0.012755045 -0.05598205 -0.005668717 0.06835475 0.006192232 0.0058675734 0.063281074 0.06855862 0.034997247 0.0035653608 0.011247881 -0.059131604 -0.06353165 0.067872815 -0.039059967 -0.028980106 0.013901809 0.0008876599
b25246f941ae9caadba9a380462c4dd2 0.07623717 -0.032795124 0.038213264 0.04446649 0.0047897385 -0.115607955 0.05638412 -0.014894003 -0.08229992 -0.013505872 0.0785956 -0.0921109 -0.039728463 -0.070887156 0.014135877 0.085168034 -0.021251813 -0.044739865 -0.027653754 0.09365097 0.035593677 0.098083206 0.08816911 -0.13312128 0.021399088 0.07157545 -0.059665136 -0.033479545 0.061557017 -0.029329292 -0.012918477 0.041334335 -0.061202377 -0.07450111 -0.08753275 0.0012284402 -0.010183199 -0.009145278 0.07329067 0.019626437 0.004752214 0.034047395 -0.024012733 -0.047269788 0.061390657 -0.050759867 -0.02537084 -0.06696457 0.0047693653 0.030965732 -0.015433937 0.018302627 0.057862878 0.07474358 0.060684383 0.008185598 0.005534631 -0.06864893 -0.06617677 0.06860085 -0.025373153 -0.052227072 -0.002684967 -0.010672368
4de5f238645a9cfc8cc7c82148bde15a 0.09257227 -0.055419773 0.06498301 0.077227 -0.008934798 -0.08666543 0.07866278 0.0045202174 -0.10082371 -0.0009741351 0.056350254 -0.085698195 -0.08382891 -0.069226295 0.035107248 0.08910673 -0.0077874325 -0.05827692 -0.03001022 0.10783517 0.07189682 0.13840288 0.10222091 -0.14278433 -0.0064462884 0.09960392 -0.0949873 -0.022477737 0.054428253 -0.067054875 0.021610644 0.038161676 -0.061107732 -0.08157525 -0.12224265 -0.025758937 0.022408364 0.0010584467 0.066116385 0.006115416 0.020940065 0.038816746 -0.022516519 -0.068610094 0.07151508 -0.08974746 7.834062e-05 -0.073024444 -0.012661559 0.06450189 0.007718129 -0.0125339385 0.06869924 0.09973535 0.041767552 0.025785996 0.020678438 -0.049445067 -0.06947189 0.06994378 -0.027175467 -0.04910129 -0.007119605 0.013304218
b20fac0c924e82a45a77d0d3d999915d 0.082799084 -0.06406312 0.041275654 0.061843157 0.007494854 -0.1222349 0.08472311 0.008937768 -0.0738109 0.013818432 0.058320496 -0.08127133 -0.06784422 -0.0758339 0.040126465 0.109549895 0.0007270954 -0.05218791 -0.041386653 0.10720771 0.03378388 0.14272258 0.081117935 -0.13137875 0.017093759 0.09487925 -0.072423704 -0.0053304373 0.0620992 -0.058804307 -0.0073520625 0.017339585 -0.0390929 -0.048950598 -0.100252844 -0.00070595945 -0.0014784898 0.01310724 0.06942447 0.024057377 -0.004170194 0.017867107 -0.0063910335 -0.04095862 0.07892658 -0.0871247 -0.012627984 -0.08591814 -0.02084842 0.059032552 -0.007637965 -0.01994916 0.06045592 0.106222615 0.06558262 0.008556675 -0.004148536 -0.08240957 -0.05759135 0.038007256 -0.04927674 -0.033466298 -0.008104775 -0.028315824
510a910dafcea9d378aa4c095cb8a2e3 0.09165928 -0.074030116 0.024925794 0.061007466 0.008852086 -0.10689824 0.05858798 0.0155875 -0.07484725 -0.013317034 0.082286365 -0.074819215 -0.07975315 -0.05955047 0.037599258 0.10571449 -0.026336757 -0.062178742 -0.01280489 0.07954206 0.041753553 0.12754229 0.085532516 -0.15413669 0.021000035 0.09289598 -0.07026338 0.007556776 0.04794714 -0.024200661 0.0021660065 0.012396583 -0.0313093 -0.06982255 -0.08280224 -0.017901924 -0.009751677 -0.0032825358 0.06301865 0.019554513 0.00012191402 0.012470027 -0.031214878 -0.063982375 0.08027157 -0.09743238 -0.0015063257 -0.07395284 -0.0141879385 0.07348912 -0.0072037396 -0.010859393 0.05167052 0.10343102 0.06499286 -1.8807357e-05 0.01804609 -0.059088994 -0.073917344 0.074482344 -0.047775995 -0.03044775 0.011640005 0.0055844006
c69d7c52d0846f015c42a28cf11b5409 0.055788223 -0.037234716 0.056105778 0.07823432 -0.020640993 -0.078576855 0.07039145 0.0067003956 -0.0636425 -0.010325738 0.05319582 -0.0935525 -0.066167004 -0.049789514 0.014960485 0.06530295 -0.00244802 -0.055364843 -0.036466315 0.10437581 0.06669884 0.12167494 0.06424648 -0.1267668 0.006820466 0.09782055 -0.079072975 -0.0055381665 0.050297454 -0.044851817 0.0040439386 0.030397609 -0.027045315 -0.048802935 -0.06364549 -0.016914371 0.01574733 0.0013508844 0.04268149 0.018671276 -0.00719324 0.012961844 -0.011939783 -0.02949991 0.044039752 -0.08705329 -0.017060624 -0.04863357 -0.033606704 0.064493485 -0.0034998122 0.0064006923 0.040961385 0.06701321 0.052736625 0.020970546 -0.0034883602 -0.0621998 -0.05573939 0.058303885 -0.01244848 -0.040707998 0.014626783 -0.015628856
ec7ab9d70a52be7ccb2611f7b915a206 0.057999924 -0.026949579 0.052080248 0.04608885 0.003950853 -0.118523665 0.061085418 0.015381121 -0.107409395 0.017847367 0.07066487 -0.0915511 -0.07899016 -0.051810168 0.019737972 0.08753265 0.00090159447 -0.039637197 -0.024588523 0.105531216 0.03585481 0.11755778 0.068920754 -0.11372146 -0.006336844 0.072460085 -0.062570445 -0.004346437 0.029722584 -0.053989742 -0.0030385186 0.015406538 -0.0708123 -0.06412015 -0.09603537 0.011158106 0.0040587094 0.008329998 0.050062083 0.011342002 0.010194398 0.02802742 -0.0047752922 -0.052064724 0.037426855 -0.07817835 0.008231632 -0.08204602 -0.019070445 0.04029176 0.02135197 -0.0020876057 0.06824217 0.06447422 0.06572095 -0.019712625 0.031536978 -0.059541993 -0.05195013 0.036328867 -0.009416009 -0.016772468 -0.012440593 -0.030304607
7dd8895151ecf8633f1826e1e683be16 0.078118026 -0.059136726 0.019123595 0.069139905 -0.008746884 -0.11805235 0.079973705 0.0020427646 -0.08842083 -0.006289711 0.04720864 -0.093451895 -0.07291865 -0.062116966 0.00788916 0.0996397 0.000600109 -0.046953212 -0.016067574 0.07194515 0.066627935 0.14044839 0.067997776 -0.14433111 0.007434864 0.090340495 -0.069924705 -0.0032049222 0.058624677 -0.028429456 -0.010472246 0.030862648 -0.053364318 -0.06860228 -0.07929584 -0.021837903 0.00691073 0.0044560875 0.031673394 0.0035021657 0.015425528 0.014285483 -0.03181718 -0.031351835 0.046988092 -0.094171844 -0.008194736 -0.070936486 0.006260676 0.047929432 0.02327373 -0.020295074 0.049878318 0.097851194 0.050468683 0.0016613306 0.0124334665 -0.06377403 -0.07453004 0.040184263 -0.026546363 -0.0400427 0.021839743 -0.003948997
8882645bf27aa83150d26c621c8dc337 0.0898155 -0.049422406 0.066209964 0.05196089 0.00790626 -0.11087199 0.076947585 0.007491219 -0.11354491 0.021283742 0.059799425 -0.08982335 -0.08396139 -0.046331756 0.04420802 0.086663984 -0.010869457 -0.05101675 -0.00885194 0.1250741 0.05284789 0.13533105 0.057330497 -0.1278336 0.0053994977 0.10172548 -0.080505796 0.009724429 0.072572425 -0.044294946 0.0076751034 0.046240665 -0.052039232 -0.055580657 -0.104300484 -0.007638212 0.0124163125 0.00045043838 0.05017353 0.034364566 -0.017300148 0.022487562 -0.03171679 -0.04632048 0.08469359 -0.098411426 -0.00544139 -0.078552306 -0.034299366 0.049535405 -0.000119867866 -0.00757996 0.04393364 0.07995099 0.06434071 0.027215771 0.013075038 -0.06370632 -0.06571549 0.052619632 -0.050234698 -0.028666157 0.0072659156 0.015190882
073c3352d9c6c2f8d499d50872fce00a 0.0790672 -0.037521023 0.047732532 0.0443881 0.003122484 -0.10505083 0.07120275 0.01752722 -0.09003431 0.0054930677 0.06799878 -0.07703375 -0.05565631 -0.06473995 0.04270753 0.063780025 -0.02953346 -0.05473091 -0.032360554 0.08276046 0.032348048 0.11753776 0.06322312 -0.12869368 0.018262303 0.09238353 -0.06487961 -0.015072626 0.06413788 -0.039264925 0.0088921 0.04356393 -0.06518353 -0.072871864 -0.06473146 -0.0043114633 0.0026183308 0.015035847 0.042937048 0.0053891847 -0.014027474 0.04211782 -0.019893324 -0.06567558 0.043299686 -0.054541998 -0.023486676 -0.0801849 -0.010192834 0.041963454 -0.0020952162 -0.0048330706 0.05318961 0.085423365 0.034280144 0.013015295 0.022331823 -0.07914906 -0.07170752 0.07093893 -0.0482152 -0.03256499 -0.021660531 0.010622559
48014a1271f80689bcac59c160ffdd0e 0.056219984 -0.06498056 0.03956512 0.062072635 0.014874997 -0.08089601 0.05988391 0.019271724 -0.07694575 0.009692048 0.04981694 -0.08391824 -0.05461149 -0.032304484 0.015527515 0.057142936 -0.0024582266 -0.020968474 -0.041923497 0.09445853 0.043741252 0.13568059 0.09102437 -0.13650219 0.021436268 0.100623846 -0.05449914 -0.022726404 0.050916858 -0.04677058 -0.0044139894 0.036207743 -0.054402146 -0.04093801 -0.09565051 -0.00455435 0.004891685 -0.010182732 0.031160323 0.02212259 -0.0148123 0.03208819 -0.016483169 -0.06640604 0.05020689 -0.092590205 -0.031565394 -0.06894228 0.010418521 0.039832044 -0.006103446 0.022569342 0.06555627 0.10767159 0.027836863 0.015967067 0.0011582664 -0.048787564 -0.04619987 0.045888186 -0.011120097 -0.0562313 0.009126067 0.0016649127
44a5a06973b115efdfd2bbae29dd686c 0.069352515 -0.027608247 0.024561254 0.056900542 -0.010816223 -0.09187393 0.05980841 -0.011186216 -0.06803732 0.0041999584 0.0658672 -0.082230315 -0.05347836 -0.05127682 0.011904702 0.07078301 -0.0036896928 -0.0444113 -0.025560083 0.0949661 0.032167114 0.09169093 0.07100226 -0.10686471 0.0033297145 0.0866272 -0.03768062 -0.00088691537 0.04198845 -0.03577059 0.013172456 0.028729523 -0.051355608 -0.057747442 -0.075184606 -0.017980399 0.012862441 -0.009477655 0.03978078 0.018486265 0.008473263 0.02554763 -0.031868685 -0.039017048 0.06187108 -0.05382594 0.0069817007 -0.053446528 0.0056585837 0.05491145 0.0041113165 -0.007857404 0.039586045 0.05311839 0.049630884 -0.005881808 0.003312069 -0.055777546 -0.030885201 0.046581402 -0.028442476 -0.033225026 -0.0059694755 -0.008578941
b75059c1c2a15c1061c6c00c373e268d 0.069479406 -0.06649953 0.048523683 0.08392738 0.0054212348 -0.110793605 0.07308403 0.00053670694 -0.114893705 0.016740022 0.09064835 -0.113810115 -0.064053625 -0.048985757 0.013973397 0.08987288 -0.042934056 -0.045403536 -0.034187943 0.116016336 0.07687266 0.12680234 0.06697737 -0.15486036 -0.008370343 0.083118156 -0.1017137 -0.01363992 0.053282123 -0.050989546 -0.0081500355 0.04866934 -0.038125895 -0.08247876 -0.09148273 -0.027337996 0.00016359618 0.0138062155 0.0650749 0.0062510846 0.005628773 0.031206613 -0.041397836 -0.077435054 0.055036273 -0.07841282 -0.017013365 -0.10449003 0.00044721272 0.05783732 0.013654622 0.010704791 0.046135884 0.11895683 0.039338503 0.0018191115 0.0051056733 -0.07640069 -0.0811462 0.09239274 -0.026625967 -0.060635563 0.010150356 0.003955445
93e8f114eab8d2be871ba3785ea68efa 0.05210608 -0.03579089 0.027707279 0.07308392 0.012150224 -0.10109247 0.038994823 -0.0003146895 -0.080856405 0.0035152691 0.08042 -0.08614114 -0.073413245 -0.06952624 0.02069119 0.07987409 -0.020833826 -0.04643366 0.0014354808 0.09045069 0.05864962 0.11889057 0.054845594 -0.12625973 -0.0069564767 0.065863945 -0.07240898 0.0017487671 0.042918164 -0.023529116 -0.007091308 0.018906048 -0.038001228 -0.047504887 -0.08419652 -0.008157614 -0.0060541434 0.016069986 0.04086334 -0.002620556 -0.012033134 0.044376355 -0.007659566 -0.037585486 0.07095949 -0.080504745 -0.0059069516 -0.06110401 0.0013985265 0.03494077 0.019611472 -0.018813387 0.054400835 0.09202451 0.03989433 0.015828835 0.027086271 -0.059171163 -0.039371587 0.0637903 -0.032878563 -0.022980204 0.005587471 -0.008849222
5b7a3f378e38cb75cb33783117351941 0.0798888 -0.052090805 0.05138079 0.056066394 -0.008538019 -0.10607409 0.0779912 -0.0055546607 -0.07040592 -0.0036887485 0.07338423 -0.08217155 -0.050037507 -0.06727318 0.01617753 0.09549412 -0.02597538 -0.036544517 -0.03868201 0.10757311 0.04428539 0.12555683 0.082394876 -0.1416122 -0.00028582543 0.0727036 -0.06705392 -0.0011679285 0.036887854 -0.025760183 0.010258099 0.011234275 -0.053665116 -0.050684504 -0.11119394 -0.0031541488 0.012886365 0.017525597 0.0623471 0.023777233 -0.0038382001 0.012962585 -0.0050063496 -0.06805666 0.06365507 -0.08437268 0.0045313155 -0.087788366 -0.005246733 0.055628043 -0.0073602493 -0.019523608 0.035403058 0.09242156 0.03229684 0.01823002 0.009945089 -0.08812374 -0.06764979 0.0712327 -0.04036538 -0.022859233 -0.020992437 -0.026138231
be89ccf2ccb762331b9f62cae59c2771 0.058737043 -0.048440225 0.02329165 0.044499975 -0.017191634 -0.101358294 0.08326003 -0.012958099 -0.094820455 0.0035418686 0.06536462 -0.10047917 -0.04247156 -0.06505134 0.033476938 0.09710047 -0.008414591 -0.033374675 -0.0050379443 0.10422253 0.035829663 0.13296837 0.04934111 -0.1444542 0.023559818 0.06768432 -0.07809235 -0.014571824 0.05271765 -0.029440114 0.00452736 0.033513255 -0.053017847 -0.050272677 -0.100227855 -0.011284505 -0.009357766 0.009716405 0.06195386 0.029453909 -0.006398244 0.028456276 0.002687604 -0.06072802 0.051117077 -0.076367535 -0.026583796 -0.052959032 0.0073205084 0.064601555 0.024445675 -0.014541652 0.04409561 0.06771644 0.035643026 -0.01016142 0.019569987 -0.061933294 -0.06537572 0.07283577 -0.028881572 -0.03503948 -0.0074017546 -0.0072627533
96b70438d119643f4882e9e98a2f0cea 0.041326523 -0.021773288 0.03302738 0.03586079 0.0093808165 -0.061284535 0.03441333 0.021527082 -0.06320523 0.017286344 0.028815331 -0.067446604 -0.045640893 -0.04046683 0.0109604765 0.050114512 -0.004854603 -0.016196832 -0.019457374 0.06758943 0.03215662 0.08064034 0.04792468 -0.094248615 -0.0048478185 0.058889996 -0.045244653 -0.0045026396 0.015980931 -0.020115305 -0.00279444 0.012716903 -0.044944335 -0.049554665 -0.067951314 -0.022149598 0.0016986545 -0.010445637 0.024014043 -0.005500257 0.017951015 0.01690946 -0.02631755 -0.026667185 0.026067786 -0.05160009 -0.009912249 -0.060260992 -0.020493468 0.020548876 0.013701117 0.017439852 0.035692904 0.06246202 0.039775185 -0.00025236447 0.027885996 -0.034187067 -0.034288652 0.047461867 -0.03343176 -0.021111527 0.014291971 -0.0032613808
fc2ddf1fc15286cde24b6f60474d2900 0.047551055 -0.047876947 0.03333679 0.049337193 0.0014107496 -0.07302281 0.05352834 0.014270985 -0.08464376 0.0174456 0.038474828 -0.09194865 -0.059644498 -0.05716869 0.0121919485 0.074969515 -0.009173212 -0.038453855 -0.012463376 0.084143534 0.049547084 0.11057077 0.07735571 -0.10014485 0.0026498705 0.07841688 -0.0706975 -0.015451175 0.02645098 -0.032522812 -0.012724057 0.01429156 -0.040876713 -0.04224749 -0.09234689 -0.0002183311 0.013543691 0.009059017 0.042655263 0.036598746 0.023058604 0.022315385 -0.0121858725 -0.061824694 0.04216077 -0.07024727 -0.0018968352 -0.0624785 -0.025903177 0.05442021 -0.011211966 0.013652976 0.054775357 0.057411775 0.042310197 0.016564064 -0.0013779028 -0.064955555 -0.038108982 0.050542746 -0.008540165 -0.05006182 -0.0032488185 0.009598961
310dc6d4c646d4465a81f16225d916d5 0.06638433 -0.045974676 0.028194932 0.051981416 -0.013318436 -0.07576603 0.06332817 -0.007848798 -0.06639568 -0.004515515 0.05442784 -0.08232149 -0.0538525 -0.06115477 0.025468523 0.075713076 0.0014152875 -0.031322744 -0.022434846 0.08231336 0.05893574 0.12233941 0.059578683 -0.1386883 0.004801516 0.09092017 -0.08424876 -0.020855583 0.065249674 -0.053333763 0.022726929 0.028517999 -0.06139464 -0.067425616 -0.09169366 0.0018662291 -0.0048224325 -0.009017539 0.042741872 0.026736902 -0.0034274163 0.035544425 -0.022518126 -0.066673286 0.05449182 -0.0716896 -0.0032139022 -0.08836048 -0.022236833 0.03777016 0.00661098 -0.009924865 0.049047027 0.09411349 0.051596176 0.0106559275 0.010907183 -0.054520134 -0.070670046 0.041747376 -0.012962548 -0.043239843 -0.014711872 0.003669154
ad75e94b2435bc61547869029e961407 0.072300546 -0.035646312 0.03544583 0.041373163 -0.007669511 -0.09977606 0.039479073 -0.009751848 -0.07947775 0.01712845 0.05633898 -0.069069155 -0.04534995 -0.031247636 0.024882087 0.0587084 -0.0046671997 -0.024755787 -0.028573884 0.07036376 0.060675323 0.11411059 0.042924717 -0.11943583 0.013284185 0.073373474 -0.065621234 0.011131195 0.029488303 -0.025027731 0.019308526 0.019130688 -0.034175906 -0.05023672 -0.09649679 -0.0022661895 0.006037817 -0.019511258 0.059175845 -0.0042826547 0.006877944 0.010928795 -0.036342114 -0.06030207 0.058034353 -0.0694437 -0.0037851457 -0.065340176 0.007846434 0.056842536 0.020174842 0.016274542 0.018422341 0.058563977 0.024118274 0.0039947247 0.021574123 -0.040595505 -0.05378256 0.05387194 -0.027138432 -0.045525137 0.012835936 -0.020529725
d6804d3edd4a5e131e29a2e0e8a6d939 0.042874366 -0.039437138 0.03877415 0.03649764 0.0069219912 -0.07133125 0.054803617 -0.0021814122 -0.04734536 0.0073351916 0.052546207 -0.059926316 -0.043960962 -0.040571027 0.02073934 0.040401373 -0.0029770823 -0.028755806 -0.0022430967 0.04781828 0.030486032 0.07524667 0.029173741 -0.069104835 -0.003961659 0.06544159 -0.040791526 0.005217309 0.03255453 -0.015205397 -0.0144490525 0.032158177 -0.017414581 -0.03456318 -0.0463477 0.00017425684 0.009719779 0.001142687 0.03409656 0.0063072215 0.011843249 0.03145803 -0.023303447 -0.030638697 0.022796692 -0.049562804 -0.021739542 -0.038496703 -0.007192063 0.027304493 0.012281859 -0.010161859 0.030144993 0.04737268 0.024785213 -0.00946022 -0.0004101756 -0.02795782 -0.049106363 0.037008543 -0.024165697 -0.027105186 0.005405292 -0.016767124
ab109398697709259d4b9f6f850c06dc 0.052199237 -0.06466574 0.017861836 0.052189916 -0.0068180426 -0.094885305 0.06415767 -0.006528491 -0.093120754 -0.0011693957 0.043849923 -0.09383032 -0.05878288 -0.06481845 0.011137131 0.06378822 -0.013074555 -0.0622667 -0.03068213 0.10951485 0.061927106 0.10728845 0.081674814 -0.14694391 0.007296571 0.10128584 -0.07182459 0.011092631 0.044955064 -0.030123504 0.014540482 0.0056689726 -0.06022063 -0.07247071 -0.0881372 -0.015734931 0.0028147593 -0.0081272395 0.05537462 0.016605109 0.014719072 0.0065628504 -0.020802535 -0.0418384 0.07641931 -0.07779821 -0.0096072825 -0.081238344 -0.0064744027 0.031640496 -0.008193104 0.0037555736 0.046634816 0.09154144 0.028213985 0.0078005116 0.01556745 -0.07098814 -0.055856586 0.06319675 -0.042146277 -0.033889543 0.005966365 -0.0011848797
511db904c3e430e10a7796254b2d742c 0.07630131 -0.037029836 0.052017786 0.07247596 0.017784698 -0.11779365 0.07500115 0.011765524 -0.09923865 -0.00765102 0.069840565 -0.0748339 -0.08225605 -0.050709985 0.022316655 0.085363135 -0.0058296425 -0.055725142 -0.0027523006 0.0744541 0.061739266 0.14288682 0.064288 -0.15065648 0.024453314 0.070773415 -0.08487453 -0.015695093 0.03287354 -0.026679125 0.01178481 0.02855952 -0.030956069 -0.036056772 -0.081337824 0.003519493 0.018743696 0.020686734 0.06527052 0.028202362 -0.011093511 0.038954765 -0.0053730123 -0.034143362 0.0424465 -0.08306194 -0.015307818 -0.06205252 -0.021765118 0.04642898 0.0149806775 0.012223073 0.040270817 0.09187572 0.05721579 0.0024410193 0.017336199 -0.079526104 -0.05566309 0.068254866 -0.022574428 -0.049601458 -0.007818191 0.0023484621
d6705989714c299cee41b045ce95b49c 0.07208 -0.055323545 0.05243907 0.06959471 -0.01544483 -0.073789716 0.04348599 0.0025057672 -0.060897823 0.006680435 0.044713423 -0.07635255 -0.05852079 -0.06137461 0.0046050767 0.08758729 -0.041469503 -0.032127157 -0.033943854 0.10140297 0.036954667 0.100125544 0.08451818 -0.14046055 0.012477381 0.07624736 -0.077563524 -0.024775892 0.056800917 -0.045090806 0.01376558 0.0018317198 -0.03927797 -0.062187348 -0.10569608 -0.012543475 -0.013292528 0.0012684524 0.04169584 0.010912106 -0.0095013315 0.0042364057 -0.009296838 -0.052008018 0.070714764 -0.06773478 0.00707924 -0.07696166 -0.029132312 0.051064055 -0.020635689 0.010712191 0.06226457 0.08007425 0.062197033 0.02666625 0.022546247 -0.055546176 -0.03580493 0.051617164 -0.04740551 -0.04267921 -0.006812539 -0.007556189
8e448927796f13c0c12c70b338c4c924 0.08086941 -0.0647846 0.037275836 0.07709246 0.00013315094 -0.110425524 0.060727537 -0.0023862587 -0.09308772 -0.0070183054 0.056389336 -0.06246882 -0.049527407 -0.031095127 0.040067025 0.087074496 -0.026173843 -0.030766334 -0.043769184 0.08271492 0.06607094 0.12613726 0.0553307 -0.14190546 0.021928057 0.07386112 -0.0718979 0.0062818103 0.049690396 -0.02839386 -0.0067341113 0.039165817 -0.031932734 -0.037120815 -0.060190484 -0.01684987 0.007570146 0.004068223 0.063633785 0.036700185 0.016153352 0.032312993 -0.0011988255 -0.037494518 0.055362497 -0.089558646 -0.013313638 -0.04459639 -0.020822534 0.053069413 0.013985655 -0.0139186345 0.06203022 0.07921224 0.047911443 0.021626605 0.01577994 -0.054394055 -0.07308225 0.07079951 -0.047082618 -0.013906723 0.010520649 -0.0055267676
251fb1652fc3b13dd3090954cf43d525 0.04713869 -0.03337332 0.04254216 0.08299512 -0.009443845 -0.10924375 0.06799647 -0.0032636086 -0.11337106 -0.009173262 0.06975621 -0.08811726 -0.06285483 -0.042435136 0.020304844 0.0743091 -0.010763928 -0.06715669 -0.022477172 0.12684552 0.057391044 0.13883027 0.08363488 -0.14503254 5.2566e-05 0.11403474 -0.06033472 -0.011238826 0.05039733 -0.057619065 0.006442223 0.014729162 -0.04592942 -0.06741666 -0.10157818 0.01150571 -0.014648381 0.0027604606 0.037006654 0.024792619 0.007851367 0.033171393 -0.017705422 -0.04932206 0.06544789 -0.086435 0.0044709374 -0.08211395 -0.019448835 0.043758567 -0.018874165 -0.020035509 0.0560388 0.09351207 0.03391568 -0.017149864 0.0006200923 -0.054282937 -0.076305375 0.060481284 -0.014202168 -0.021448689 -0.006729653 -0.0034751396
387509a1f6d21a864b740bee64b2f630 0.07039597 -0.037572827 0.036923267 0.06852569 0.010706221 -0.11683241 0.08696552 -0.00013139122 -0.08630914 -0.013467401 0.082278386 -0.09957158 -0.079913326 -0.06304456 0.023564855 0.09215713 -0.022191633 -0.06859288 -0.042036586 0.09505862 0.035410088 0.13019224 0.10266171 -0.15703501 -0.006954096 0.09061356 -0.069167614 -0.011455531 0.050284576 -0.058677934 0.01037429 0.012120979 -0.07291905 -0.050888486 -0.119218685 -0.0008557747 0.0058344686 0.027989902 0.06711332 0.023036381 0.0069906805 0.030456789 -0.015478636 -0.06543799 0.078732654 -0.07346955 0.0044412566 -0.08476118 -0.013289148 0.069015644 -0.014059888 -0.007377002 0.037067465 0.10497093 0.035028335 0.013803211 0.03514724 -0.07774335 -0.083214104 0.044550158 -0.03026395 -0.049391687 0.011913759 -0.012555335
afc0c14894566538652776c18486c109 0.08308772 -0.047378626 0.026046146 0.050369505 0.0022724406 -0.10712598 0.07537321 -0.0018230173 -0.09081278 0.004140112 0.04729512 -0.09204913 -0.067946024 -0.05524996 0.02283776 0.08753396 -0.0032282327 -0.026495118 -0.013627452 0.09208089 0.031394247 0.13414508 0.06824979 -0.116255015 0.003705844 0.09400538 -0.05358667 -0.021357372 0.036729068 -0.03891914 -0.00034865286 0.002910358 -0.039653875 -0.048400432 -0.08637963 -0.010944304 -0.008910969 0.023410754 0.036614705 0.004230244 0.011707563 0.0050683483 -0.02191967 -0.056850057 0.055126015 -0.083073944 -0.0037115505 -0.06705547 -0.0033055504 0.042907566 0.015325154 -0.025082927 0.053484228 0.068907194 0.045587778 -0.0091936765 0.00934572 -0.07208623 -0.059074257 0.06498376 -0.027048852 -0.03240592 -0.013178532 0.00403305
a3597b69ee21f25ec3ad93e9637c7cda 0.049881034 -0.051093016 0.022479692 0.05128993 0.0044469964 -0.10463279 0.06674251 0.008239081 -0.09815366 -0.004759054 0.05335664 -0.09998316 -0.07838388 -0.04913889 0.031677887 0.077952884 -0.023250798 -0.033875637 -0.01749125 0.072780855 0.058944028 0.13808578 0.048451606 -0.12992467 0.020492187 0.07524859 -0.06610495 -0.014957174 0.05683269 -0.02749869 0.0027753508 0.015359836 -0.049684897 -0.06381564 -0.10627402 0.008719449 0.0051346505 0.005082226 0.0641879 -0.0040976265 0.014488517 0.009922344 -0.029229144 -0.03930116 0.050645117 -0.08008149 -0.02540326 -0.073900834 -0.010631282 0.039143592 0.023410203 0.014905898 0.04129569 0.08125696 0.032119013 0.02068279 0.0027139978 -0.049187765 -0.040445752 0.06784997 -0.030810669 -0.022018451 0.013999745 -0.006395816
06374ff174e581913f023ac9bf01c7e5 0.070677154 -0.0364465 0.05097385 0.06581181 0.00268538 -0.107120745 0.044225052 -0.0025082007 -0.09361437 0.0042951633 0.04713303 -0.077577576 -0.03546832 -0.025857642 0.042178903 0.08210793 -0.022927407 -0.03798834 -0.030895563 0.07319056 0.061483964 0.093562104 0.080893375 -0.13444073 -0.0015301134 0.08340086 -0.07353256 0.0078032385 0.032837987 -0.05466295 0.012450237 0.034373425 -0.03462968 -0.051596414 -0.09529958 -0.021856103 0.0022223408 0.025803553 0.0388781 0.008305868 0.0058695963 0.04703497 -0.034923453 -0.059398267 0.056796573 -0.07648286 -0.0035339978 -0.04763907 -0.029742079 0.06581187 -0.011704832 -0.0049764444 0.031610094 0.073948 0.06555283 0.014197906 -0.0016957307 -0.054177023 -0.07170346 0.022977313 -0.0215269 -0.02530312 0.0031287724 0.01566958
df5d0b04bcc08abc2da731c1bec20c6a 0.0783032 -0.06732594 0.049562875 0.06908098 0.011802297 -0.07135035 0.04479664 0.0021649622 -0.08701066 0.024002746 0.059726026 -0.06601145 -0.073027655 -0.076261126 0.0048092287 0.06902469 0.008139405 -0.051727854 -0.03292236 0.112769194 0.029148508 0.121036746 0.0884961 -0.14381464 0.002761644 0.09968759 -0.054475754 -0.017572718 0.034443457 -0.01175896 -0.0069100233 0.04668621 -0.071396165 -0.037421465 -0.1015355 -0.032833643 0.003875349 -3.4311954e-05 0.040363524 0.011986219 -0.012026265 0.011042779 -0.03221263 -0.037204128 0.08508852 -0.06909825 -0.02403558 -0.058623023 -0.03019984 0.054648787 0.015023678 -0.0017833782 0.026084902 0.07301139 0.022071706 0.030434208 0.026867263 -0.07003162 -0.035715293 0.030021288 -0.033843007 -0.038196165 -0.021302257 -0.027966669
d9bf8cb50fe7cb01b661169b1b89ac91 0.067324646 -0.038225044 0.017142406 0.061218396 -0.008151178 -0.084627345 0.050267585 -0.0039048323 -0.079238944 -0.010500892 0.034566786 -0.060553517 -0.056191713 -0.042974193 0.021559663 0.056457136 0.00112677 -0.020702513 -0.014027734 0.067808636 0.042613976 0.10482245 0.068167694 -0.1045083 0.004402173 0.059964515 -0.054768674 -0.020228956 0.033343382 -0.050137255 0.0009876632 0.025359606 -0.02937118 -0.04465337 -0.053466786 -0.01861644 0.024714835 0.00905646 0.04691955 0.016728548 0.0015795521 0.027173903 -0.007801982 -0.059061326 0.03573456 -0.05959484 -0.028583236 -0.047495235 0.0029531484 0.030367676 0.01567446 -0.0051217447 0.034711722 0.07497868 0.017269826 -0.008328191 0.024633406 -0.057065833 -0.027443811 0.05570653 -0.040100988 -0.011586654 0.009129845 -0.017313132
68e69b849d1e4a4bb9c95092e766bb92 0.025082521 -0.0458672 0.029888252 0.048969287 -0.001827844 -0.053698402 0.022641089 0.000107068634 -0.042516124 -0.009517442 0.01933815 -0.04778043 -0.04872253 -0.04309185 0.019401517 0.060221236 -0.02577188 -0.009438795 0.00058467156 0.06337848 0.021724112 0.08443303 0.033051983 -0.083526716 0.006913115 0.043741874 -0.05698422 -0.0011784557 0.041996118 -0.03271678 -0.004385903 0.022052012 -0.027500415 -0.050446324 -0.04532541 -0.01238551 0.008847932 0.008526222 0.04317243 0.022292225 0.011705318 -0.002255722 -0.010571233 -0.034395177 0.03554903 -0.025287347 -0.0036972295 -0.056872252 0.011423175 0.028300377 0.0045807376 0.01155492 0.015501962 0.0518173 0.03137434 0.016126672 0.021295067 -0.044787206 -0.04745535 0.02409013 -0.00069188897 -0.03542735 0.018012112 -0.003020841
e0737ac01b18adf77b5a5bf61f42182d 0.060270794 -0.021407258 0.05070867 0.067717254 0.017477274 -0.10345217 0.06739905 -0.013254947 -0.086455286 -0.019867642 0.05663171 -0.056621827 -0.06512886 -0.052363295 0.016179023 0.06106101 -0.016510474 -0.028881395 -0.008961075 0.07184601 0.03790583 0.0984803 0.053358324 -0.107036635 0.02453541 0.08699615 -0.07364111 -0.021501016 0.023431448 -0.04974336 0.005292315 0.01516335 -0.036967725 -0.027205072 -0.06500879 -0.0035039808 0.02166711 0.019013029 0.043584112 0.00050893147 0.0009645965 0.03627382 1.9856234e-05 -0.053642705 0.06432663 -0.058781937 -0.0032124922 -0.06650124 0.0011755491 0.038796637 -0.012252641 0.0044595427 0.023047872 0.060917087 0.04206431 0.020864116 0.00817474 -0.03948816 -0.038193334 0.05600308 -0.040204924 -0.019972552 -0.013628963 -0.012793366
35e7c14cb72846ccd2c3fec597d48f1e 0.07663843 -0.05663395 0.04708999 0.053534813 0.0032595505 -0.10624445 0.0490609 -0.004675893 -0.06646934 0.0081926845 0.04559167 -0.08932151 -0.05197563 -0.0695342 0.03767183 0.090511486 -0.032176156 -0.027548043 -0.0020091177 0.08534299 0.0538115 0.10481722 0.07870218 -0.10749592 0.015725229 0.0655741 -0.05867192 -0.0144447815 0.041244317 -0.030790891 0.004084165 0.03729959 -0.06106281 -0.039023146 -0.08980776 -0.0034945454 0.01750076 0.015280491 0.06856743 0.005460833 0.008402916 0.041909166 -0.020994473 -0.039494194 0.037055176 -0.05250838 -0.0062001874 -0.057975948 0.004369643 0.049042646 -0.00031805877 -0.019282479 0.041143045 0.08428105 0.034822244 -0.009505957 0.0051799165 -0.040588666 -0.03731713 0.06376517 -0.038962934 -0.03380122 -0.01287617 0.007728252
8b2d1f62be75aee0f7ffdca8b99d0161 0.057921752 -0.024958258 0.022655956 0.044622205 0.00746685 -0.07827845 0.03867824 -0.01033999 -0.065999605 -0.01600462 0.062410705 -0.057646487 -0.053505916 -0.055054 0.0044004307 0.06411446 -0.0014577913 -0.036302634 -0.029285908 0.0902833 0.02533288 0.105708145 0.07078453 -0.104042284 -0.008928279 0.07962132 -0.069182955 -0.019389335 0.055429447 -0.048871208 -0.014734635 0.014204899 -0.03318191 -0.04402868 -0.07976951 -0.0112898415 0.021126648 0.022216722 0.061129343 0.014078878 0.008886249 0.026822971 -0.010526485 -0.03560374 0.051865645 -0.05740267 -0.019420445 -0.06906631 0.009572834 0.027658362 0.006761623 -0.0038399473 0.030490894 0.06104614 0.041109204 -0.004183137 -0.0032192073 -0.056098375 -0.038527224 0.05897984 -0.02736244 -0.015521072 -0.0138290515 -0.0124611305
3e017dafc1dc249d81e4e620c1c70ac4 0.04597251 -0.05956118 0.054910056 0.04535503 -0.01494598 -0.11253105 0.074619874 0.006115747 -0.077843696 -0.0039608385 0.055228673 -0.07948058 -0.059314754 -0.064414136 0.008215746 0.07929418 -0.037795063 -0.03819348 -0.02737717 0.10368319 0.047414165 0.12356585 0.05528781 -0.13741402 0.015961993 0.08479061 -0.072718374 -0.012223953 0.06123961 -0.057974126 -0.007673005 0.028744068 -0.043928772 -0.040265307 -0.09096736 -0.01994917 -0.01159897 -0.010629074 0.036763735 -0.0011292988 -0.009384032 0.021865368 -0.021070499 -0.061406095 0.060240377 -0.06094531 0.004597881 -0.07693303 0.0009021958 0.060837854 -0.0012222751 -0.012127369 0.036274374 0.071195714 0.057790887 0.027128365 0.034181766 -0.07833202 -0.043017574 0.06029084 -0.014317959 -0.050556514 0.0019216596 -0.016307998
4c80e9c092eabfcafe2f164d253f4630 0.035312843 -0.035495628 0.05405413 0.07453728 -0.014544275 -0.08008419 0.049726486 0.024974769 -0.10185558 0.020562626 0.039538845 -0.08659247 -0.04913849 -0.043067604 0.005660592 0.072172396 -0.013206302 -0.058670096 -0.010218516 0.10089633 0.06308458 0.120974556 0.0540847 -0.11042413 0.016376033 0.093250506 -0.044304654 -0.01731634 0.049655985 -0.039459363 0.00076095836 0.005312347 -0.0423621 -0.041841317 -0.10030579 0.02050027 0.0024106624 0.0050365957 0.037849333 0.01941548 0.015212374 0.03299296 -0.02421668 -0.02797222 0.051987994 -0.08400607 0.009513245 -0.057399288 -0.003984911 0.05434556 -0.016394489 -0.01592138 0.042173777 0.0663344 0.034205236 -0.0029540246 -0.0047394405 -0.048387595 -0.04870261 0.04226165 -0.012763875 -0.022024315 0.014612644 -0.009680716
c0cedd4ef93c2185b909083b8f453340 0.07674959 -0.04089305 0.036688693 0.046769366 0.011070448 -0.08177666 0.058837328 0.01995378 -0.08091564 0.022501035 0.053446308 -0.07338371 -0.05964719 -0.06037439 0.015771627 0.07718872 -0.0042066467 -0.020789042 -0.037055466 0.09497708 0.018394697 0.107356675 0.073381975 -0.11582189 -0.009737111 0.059146862 -0.053700794 -0.006640975 0.018104445 -0.029670918 0.0005024307 0.021950861 -0.03765838 -0.043266233 -0.092969224 0.00649203 0.010572444 -0.004000693 0.0362675 0.016040748 -0.00081505143 0.017608415 -0.024045348 -0.04640055 0.06059394 -0.06190317 -0.0040893634 -0.05674155 -0.01584795 0.026732229 0.020321734 -0.025491055 0.030212 0.067604445 0.027669033 0.005497884 0.027047792 -0.057854693 -0.033722017 0.043017898 -0.040673744 -0.03399635 -0.0052978215 -0.00072821043
951ebf3214d3184567630288486e5363 0.08380383 -0.03545787 0.02384188 0.047151975 0.013799228 -0.0916834 0.073172726 0.0018745406 -0.06915612 -0.016789136 0.07118565 -0.09403672 -0.060262512 -0.039713897 0.00848422 0.08585818 -0.025066135 -0.0513507 -0.014897065 0.09224825 0.044031207 0.13352141 0.056472257 -0.12746257 0.026079146 0.0877366 -0.075598665 -0.0018344905 0.03329083 -0.039781258 0.008536836 0.039155867 -0.034458015 -0.059197627 -0.06918485 -0.01796874 0.020461727 -0.007849711 0.038994048 0.013216174 -0.015382561 0.019811867 -0.01997208 -0.051775407 0.037983384 -0.08103886 -0.026601322 -0.069728106 0.0016458231 0.04749332 0.021265902 -0.0087156445 0.055737056 0.09497685 0.05459703 0.004642872 0.0140545 -0.05785818 -0.07200664 0.07007086 -0.035155553 -0.021513702 0.007029168 0.00059909595
da87acb9e2f05fb9ba9a2c1a8491f142 0.05033439 -0.055761553 0.036494788 0.055014044 -0.017295087 -0.07612919 0.041191854 0.0008073957 -0.059161462 0.0073339394 0.05113088 -0.07275021 -0.051309492 -0.02952708 0.02504931 0.0720123 -0.007903826 -0.04239224 -0.0036342174 0.06103643 0.025491819 0.101578236 0.05084447 -0.11327827 0.0005482866 0.07772239 -0.054602467 -0.0015051933 0.038264833 -0.023194456 0.00430597 0.0023209 -0.041165598 -0.030365314 -0.06985517 -0.011879291 0.015119208 0.019592334 0.047225818 0.010138626 -0.01633592 0.012394282 -0.0066030696 -0.047819782 0.0632555 -0.07300786 -0.026688833 -0.06320093 0.0011132114 0.02342937 0.013120611 -0.016074909 0.039443105 0.07046716 0.036169037 0.021525148 0.021908276 -0.05023713 -0.031994626 0.04956377 -0.016685314 -0.007428132 -0.00033703112 -0.016832085
d44418a9fe82185a0fe8ec6b3a70243c 0.049723145 -0.04258839 0.021011628 0.04580872 0.016861146 -0.09395519 0.0621321 0.010129928 -0.0726214 0.0024098807 0.05951538 -0.08056574 -0.043747295 -0.02980972 0.013095608 0.055644777 -0.027897589 -0.05384984 -0.009427304 0.08716568 0.05321528 0.09991712 0.058090985 -0.10293402 -0.01124154 0.05576768 -0.05135905 -0.023648115 0.032768745 -0.043261804 0.011364664 0.015081698 -0.023085592 -0.043262262 -0.08144489 -0.010421011 0.006938598 -0.003997501 0.054472204 0.031191943 0.009259019 0.009725615 -0.02355901 -0.047491614 0.04378841 -0.07363193 0.0024626085 -0.048889294 -0.0142539805 0.042839773 0.011164008 0.0010135724 0.05285379 0.06581694 0.025243318 7.5495875e-05 -0.0054563736 -0.034852013 -0.063728906 0.040977776 -0.029933924 -0.023873515 0.005969032 -0.020226715
80fcde17c4e2e3d6a861e0824502f854 0.034777425 -0.029385976 0.03182717 0.046833917 0.00053798046 -0.05706548 0.022627678 0.016054133 -0.060093395 0.00986119 0.02646028 -0.063495584 -0.023758383 -0.033683896 -0.003623549 0.0284019 -0.009367335 -0.04024873 -0.00677282 0.060699306 0.0345363 0.062945224 0.057338852 -0.09445775 0.01626404 0.05515883 -0.041530248 0.0020863353 0.024518186 -0.03407762 -0.003059417 0.008779203 -0.033567745 -0.045799885 -0.046675567 -0.02025025 -0.0045716483 -0.011554388 0.0155410115 0.0056706686 -0.012048767 0.0067754174 -0.008814386 -0.033831067 0.040593762 -0.029330304 -0.027659576 -0.033310067 -0.018093359 0.03776431 0.013010873 0.01570771 0.013152846 0.056154795 0.016119959 0.0010326029 0.0016815125 -0.052224096 -0.027934575 0.037493918 -0.024023483 -0.032849364 0.008204601 -0.006877184
a2ef3b3fdfe3fac58dad3af479a9a1e2 0.027510012 -0.039579827 0.021220272 0.052986685 -0.008599305 -0.047438633 0.046794254 0.0014076856 -0.055341158 -0.00077349384 0.03850294 -0.05301186 -0.03837867 -0.047849204 0.022096597 0.031868633 -0.02397471 -0.022621814 -0.008820033 0.057620298 0.028797532 0.07478957 0.04864967 -0.06772142 -8.2393846e-05 0.04362091 -0.052089747 0.009966139 0.033341244 -0.034984242 0.010087165 0.031456735 -0.01981561 -0.047952905 -0.064091764 -0.010581655 -0.004736175 0.012485593 0.040663913 -0.0010835428 0.01340388 0.0002853679 -0.0006753339 -0.03963842 0.03938443 -0.04827485 -0.007079872 -0.032208405 -0.0072839265 0.020746011 -0.012482609 0.008124831 0.033573464 0.06327909 0.024014128 -0.012651311 0.02289072 -0.047442712 -0.025836652 0.042724807 -0.022632547 -0.02052522 -0.0033339937 -0.013958518
5c464c1b8fa443c14d2dca0345b8b697 0.03189085 -0.030156074 0.015726361 0.039343953 -0.006925802 -0.047765333 0.050151955 0.012712103 -0.05328123 -0.0030722101 0.028387425 -0.03812661 -0.027810745 -0.049175214 0.030395152 0.07104502 0.007067436 -0.04621374 -0.018977746 0.06668459 0.04287707 0.07576037 0.037932374 -0.07663624 0.021223787 0.055776883 -0.050934315 -0.012306087 0.022736326 -0.026062379 0.005485194 0.009818412 -0.04839195 -0.036827788 -0.04981306 0.009584761 0.004838475 -0.004050164 0.052854482 0.011561453 0.002613432 0.027040632 -0.021938048 -0.019586788 0.05277128 -0.04179706 0.0034496202 -0.041661903 -0.009694634 0.019248372 0.0018071017 -0.0005671009 0.021432076 0.057568435 0.037554845 -0.009703644 0.011359779 -0.024258984 -0.054111194 0.03780947 -0.03350032 -0.034478355 0.018464847 -0.015133389
c1aaccbf063d93cbb68f26640b5cca01 0.04830975 -0.054170668 0.018558165 0.03736825 0.0026193957 -0.06941393 0.027249662 -0.007396296 -0.071807764 0.0017087151 0.030150201 -0.069336176 -0.037870027 -0.031016525 0.026993053 0.0682239 -0.018136714 -0.025310962 0.0044275387 0.071516365 0.0384868 0.090950295 0.035869773 -0.08719001 0.02044195 0.06350432 -0.03211483 -0.02066996 0.03834701 -0.045750923 -0.015783038 0.022677664 -0.02652716 -0.029574161 -0.08653087 0.0064644357 0.010036062 0.015861576 0.03721112 0.024087448 0.012193913 -0.00067410106 -0.03466776 -0.021240272 0.040907674 -0.073877096 -0.019197958 -0.04945454 0.010048514 0.032807145 -0.00085495476 -0.015325902 0.021561064 0.065282375 0.035217874 -0.0070815464 0.01259815 -0.06640921 -0.04271659 0.048540022 -0.018161895 -0.0073900144 0.014337888 -0.0033172115
a0f2cac69b916da1f85d6d1841472ac9 0.059122965 -0.023547877 0.049684722 0.06328319 0.008485226 -0.063259006 0.0617265 0.0065650246 -0.07224432 0.023829442 0.04626037 -0.06916277 -0.043147493 -0.04735979 0.033460643 0.06885751 -0.003811931 -0.01855091 -0.006892565 0.06361743 0.025945826 0.08378621 0.049310934 -0.11911107 0.0053096977 0.053010207 -0.03405718 -0.008376597 0.026182245 -0.046031512 -0.005670326 0.002684538 -0.036302138 -0.03320202 -0.07820068 0.007494462 0.0033813026 -0.011898124 0.03724116 0.0057161525 -0.0146919 -0.0014844021 -0.025150204 -0.044551797 0.054882925 -0.06670479 -0.02069715 -0.049174126 -0.0077423467 0.046119932 -0.0043036826 0.0139872525 0.043198675 0.049219217 0.043205526 0.01611986 0.016610522 -0.036570147 -0.05131058 0.026089357 -0.03458538 -0.0115210805 -0.013660916 -0.007568331
e8014e52fd7b7fd2af453a1d323116b2 0.039573893 -0.038163796 0.040191475 0.023811413 -0.010782353 -0.03379076 0.017586732 0.023648668 -0.05131716 0.009889859 0.03040592 -0.052336205 -0.044082306 -0.03718174 0.024548387 0.06015339 -0.014135072 -0.011497204 -0.008311828 0.055889755 0.03211975 0.047221288 0.05519337 -0.0855 -0.0034122164 0.053394184 -0.02752964 -0.021168316 0.025745694 -0.011349387 -0.014768133 0.030279236 -0.036137637 -0.021606565 -0.064007714 0.007664879 0.01890076 -0.013173052 0.02441555 -0.008086482 0.016009538 0.029866464 -0.021860316 -0.02644024 0.030089717 -0.050709505 -0.008204903 -0.0560226 -0.0010341208 0.015471031 0.006697727 0.011124201 0.021043371 0.041043088 0.010183215 0.01434558 0.013634397 -0.021822892 -0.025819441 0.022312459 -0.01252234 -0.003757646 0.017415736 0.012990137
d97253251268ac62d10202a8d635149b 0.022853909 -0.043112837 0.03973358 0.03150152 0.0072288853 -0.050336637 0.037588894 0.015154594 -0.079016596 0.015425396 0.047213793 -0.047366034 -0.052901283 -0.016008886 0.032021157 0.05308413 -0.0032923685 -0.023614572 -0.017694222 0.078534395 0.030699946 0.07574097 0.044289447 -0.094633944 0.00626947 0.043953475 -0.03729864 0.007873878 0.03631906 -0.01994664 -0.008952975 0.022177687 -0.04584925 -0.04291438 -0.040935088 0.012228028 -0.008422215 -0.008501326 0.04688832 0.020239959 0.015263953 0.008695433 -0.009494069 -0.033529647 0.036647927 -0.050175466 -0.015581706 -0.040145956 -0.011606331 0.04470509 0.002104676 0.0123573225 0.03591137 0.060053278 0.0167562 -0.015641833 0.007728864 -0.042586382 -0.024525259 0.038200483 -0.025960114 -0.006088558 0.0034068874 -0.021339035
41c1ecd7ed54a73df6ae990d469e694b 0.047037352 -0.030639732 0.009582892 0.04873995 0.013739601 -0.036604572 0.03307613 0.019264806 -0.038068675 -0.008802081 0.046156906 -0.050423257 -0.04677896 -0.012709688 0.0022165838 0.05760211 -0.024543194 -0.006199449 -0.023010185 0.05576403 0.043000247 0.0690893 0.036238067 -0.079076864 -0.0141093815 0.057511292 -0.024588179 -0.014608746 0.03183058 -0.010689105 -0.013970646 0.017265555 -0.039154038 -0.04023384 -0.048440762 -0.015522002 -0.004219293 -0.0081432555 0.012233305 -0.0071333908 0.019649366 0.028303012 -0.01064495 -0.03144385 0.04044536 -0.0386254 -0.02162957 -0.050220717 -0.0049251723 0.0374875 0.00625568 0.01551202 0.034123763 0.04649336 0.04014307 0.018647024 0.022973647 -0.02073673 -0.04566491 0.0305622 -0.02894551 -0.029415775 -0.014420769 0.002899788
096447520d93cd88db49ecb0252b4d2d 0.035745863 -0.03849764 0.032464508 0.048261665 0.009403637 -0.03285735 0.022297313 -0.0041295523 -0.036372032 -0.0042937933 0.015697643 -0.03594258 -0.037070114 -0.03456725 0.016197516 0.058203634 -0.0024185244 -0.018718442 9.791083e-05 0.053178683 0.036835875 0.060518593 0.040751774 -0.057532385 -0.015845552 0.056555092 -0.03081545 0.0018171213 0.020429669 -0.02249556 -0.009998071 0.008578745 -0.02964155 -0.04062223 -0.047726873 0.011654624 0.012056443 -0.00862056 0.010932679 -0.0014198731 0.0101535 -0.004674952 -0.0011851481 -0.020584963 0.023845585 -0.021936022 0.005289461 -0.03616994 0.004208774 0.010303067 -0.014510715 -0.0067941123 0.038653612 0.04688008 0.03110622 -0.004717019 0.015867064 -0.03295376 -0.030531678 0.019124404 -0.007789378 -0.02928937 0.0112090595 0.009998051
462bd89edd065d5bfb79d6a308a618a9 0.048060935 -0.044349205 0.019253734 0.037946284 -0.010390411 -0.062644415 0.03550276 0.007644913 -0.080343366 -0.0031624457 0.04288731 -0.07549636 -0.03404925 -0.01732842 0.01902901 0.06471153 -0.02461318 -0.033639595 -0.012740348 0.07054212 0.053471137 0.08522882 0.06556732 -0.08615501 0.010770434 0.08059179 -0.058786985 -0.016507676 0.048333324 -0.01142239 0.008539836 0.011001053 -0.023155946 -0.03760166 -0.06967247 0.013764127 0.011641048 0.014457089 0.037242536 -0.0073251817 -0.008331807 0.022586307 -0.02343937 -0.0234021 0.058853887 -0.07394111 -0.02335339 -0.06715414 -0.009177783 0.033414412 -0.0040317234 -0.0039793607 0.03903744 0.08125773 0.026099447 -0.009624073 0.019727485 -0.060817912 -0.03020309 0.041041173 -0.034720596 -0.037961587 -0.015156491 0.0006097104
0d4ab821ae56806b0c220e730fe486ca 0.040353235 -0.025170967 0.027469551 0.041020792 0.0056383996 -0.0657792 0.029034482 0.0012698122 -0.053911515 0.00066539046 0.029406987 -0.057652444 -0.025460685 -0.03663912 0.0326893 0.045800295 -0.027679292 -0.043310933 -0.02126334 0.07016286 0.041295707 0.076678984 0.058380485 -0.0808304 0.014207732 0.057766423 -0.044283826 0.0032302618 0.033177588 -0.012916279 -0.008985006 -0.0025555873 -0.035368163 -0.037098717 -0.062375844 0.0039621484 -0.009991367 -0.008415527 0.045628965 0.0076225894 -0.0018910138 0.013140367 -0.010836045 -0.046451464 0.03102295 -0.051193774 0.01060306 -0.062055107 -0.013085547 0.025494616 0.008161142 -0.010540294 0.019425474 0.03966336 0.036181904 -0.015047351 0.003372442 -0.036685232 -0.033866696 0.013271683 -0.0013032864 -0.02483643 0.0022440695 -0.022227269
15cc468d8292ea53f8a9d3bc95a65bc8 0.02238306 -0.021646196 0.029905383 0.03762787 0.011841605 -0.058778025 0.02600229 0.0057109245 -0.04487016 0.012481901 0.029417949 -0.05609548 -0.025846707 -0.017490173 0.001546321 0.04615504 -0.017674066 -0.006238845 -0.0056903055 0.050522864 0.025520258 0.04580602 0.052644353 -0.070919566 0.0135637345 0.05583813 -0.048784792 -0.0055708676 0.029257283 -0.025993627 0.015107253 0.005175317 -0.039304834 -0.02776966 -0.052735496 -0.01705447 0.006077339 0.010400236 0.01703807 -0.0004201688 -0.011175437 0.016169406 -0.017999172 -0.013666182 0.029671788 -0.0324389 -0.017302759 -0.025504977 -0.007865697 0.011145214 -0.010406448 0.0014889371 0.03570518 0.0506876 0.016537681 -0.0045809145 -0.0051327758 -0.028189844 -0.045086138 0.032008354 -0.012530271 -0.018730903 -0.015379158 0.007420186
786abcf09b501d4ff3140108256ae4a7 0.028690882 -0.03690401 0.005792595 0.04045942 0.0042868415 -0.052291524 0.02371497 0.015869105 -0.050986107 -0.008254757 0.022552758 -0.05073201 -0.02440558 -0.018117838 0.020566845 0.03549323 -0.0068560047 -0.007937654 -0.017531594 0.05001074 0.022759458 0.048496906 0.016225135 -0.056211554 0.012748129 0.042387486 -0.04050014 -0.00929336 0.010044958 -0.00831425 -0.010233525 0.019077167 -0.03162219 -0.03855922 -0.05030065 0.0017390947 -0.009573085 -0.006423225 0.009807215 -0.0024801316 -0.0050870283 0.01376018 0.0017413445 -0.022952138 0.015413868 -0.027717045 0.0012096883 -0.038947158 -0.0134200705 0.027345978 0.009961208 -0.010909037 0.032545492 0.02233047 0.0092674475 -0.006294534 0.012220506 -0.027298953 -0.01884703 0.033017464 -0.005346735 -0.019540958 -0.009373465 -0.015260396
b2aaeec12d05303038a40b95da0f6aec 0.046422508 -0.016519614 0.011202599 0.05359733 0.008391068 -0.073419794 0.029452832 -0.007201999 -0.06975849 -0.010369812 0.049251966 -0.06824631 -0.04199327 -0.023718582 0.01735073 0.041939545 -0.024326012 -0.024068968 -0.010919556 0.06331145 0.033311613 0.08536169 0.058340337 -0.094376214 0.015472506 0.049210005 -0.036155127 -0.025573649 0.027023304 -0.01834788 -0.004315279 0.028601926 -0.021054162 -0.056293704 -0.06400204 -0.013405654 -0.014739169 0.00406107 0.044625252 0.02820761 -0.007612467 0.017081752 -0.02516764 -0.034769658 0.04936774 -0.072311364 -0.004088163 -0.060738266 -0.0075094406 0.044226557 -0.012756735 0.00079792924 0.030964734 0.041521627 0.030279957 0.014108629 -0.0073449304 -0.056225725 -0.04399993 0.0480189 -0.020158084 -0.0019886852 -0.015340921 0.016645055
1da035b2e8a12fc6c3aa2db3ee241bd8 0.029039197 -0.03714411 0.0048818355 0.039777756 -0.0076509174 -0.043203406 0.039667297 0.0048641497 -0.04030938 -0.016315363 0.026683602 -0.056306574 -0.047107805 -0.022104772 0.020188767 0.03965026 -0.012603752 -0.036265373 -0.016179603 0.058284365 0.03701542 0.082993306 0.027185041 -0.069534995 0.0018171164 0.036900505 -0.044094 -0.013345463 0.031695493 -0.03311364 -0.01299425 0.006459763 -0.01782769 -0.031038463 -0.039755985 0.011195509 -0.007704456 -0.002695487 0.04327405 0.016251737 0.011615705 0.030455856 0.010039508 -0.031994857 0.036383692 -0.03327391 0.0063606296 -0.020512048 -0.015326903 0.016614588 0.015287804 0.00076176494 0.0256568 0.057753433 0.035554793 -0.0059317965 0.0012682679 -0.047653444 -0.016612321 0.03958798 -0.019645326 -0.017681023 0.011736776 0.01870022
bde750c0c7174edac69b9a479bcfe07a 0.047879115 -0.025912497 0.028846754 0.053784568 -0.00054209837 -0.05414434 0.01873753 0.011467967 -0.06883937 0.014473529 0.023193061 -0.052949812 -0.032488894 -0.031896055 -0.0032659275 0.05722691 -0.023402318 -0.043405287 -0.0056327186 0.05817734 0.044328224 0.05749162 0.043054968 -0.07975865 0.01923448 0.037791893 -0.027765656 -0.024038937 0.0178485 -0.025087493 -0.0030088269 0.004954386 -0.035861135 -0.026497303 -0.07474097 0.005410909 0.008679374 0.004832506 0.030659316 0.022058794 -0.016728558 -0.0015742311 -0.0022662377 -0.012746246 0.022444665 -0.061165415 -0.008539872 -0.060862258 -0.0020512028 0.041605584 -0.009855911 -0.016082902 0.04349405 0.049724534 0.021603528 -0.0034945605 -0.0062219705 -0.045388814 -0.039271258 0.030315666 -0.0154459495 -0.0057829553 0.013535527 -0.007974314
f2a5d8cb6164d6ea19a434894922b541 0.008327867 -0.0133368205 0.0050910567 0.039188687 0.005480122 -0.035716534 0.033126697 -0.002961311 -0.035518084 0.0042716796 0.03258086 -0.0213894 -0.019023007 -0.011868578 0.004537417 0.044188138 -0.018316096 -0.020289557 -0.016614981 0.051157545 0.01021312 0.039658215 0.040282615 -0.06230674 -0.0003407591 0.036105897 -0.032646544 0.011583431 0.01842628 -0.022449926 0.0086107515 0.02413408 -0.016120741 -0.0091868695 -0.0476325 -0.0112214675 0.021161396 0.0100573795 0.02035495 0.0025838318 0.007241207 0.009453034 0.0067432737 -0.019462358 0.035266694 -0.033464085 -0.01893564 -0.026723534 0.0031127904 0.015690276 0.0094513735 -0.010387701 0.00094190595 0.04269487 0.02904533 -0.0048788968 0.0017694592 -0.030478135 -0.018859245 0.03295167 -0.009199005 -0.016950198 -0.0070815715 -0.004255733
2bd38d9e6a81dfd15b6aa3101d16b1e7 0.015172686 -0.011202616 0.00297964 0.02664534 -0.012483859 -0.02596514 0.042476963 0.005228329 -0.030368555 -0.00369652 0.04576361 -0.043640602 -0.017388798 -0.030112917 0.02821128 0.054877575 0.00368721 -0.02332912 -0.0152922515 0.026732236 0.042642914 0.04134781 0.020249296 -0.051739525 -0.0038645724 0.057085853 -0.04543928 0.012226745 0.026453147 -0.036043905 0.008671253 0.0029741474 -0.010890992 -0.01858771 -0.059709005 0.010091233 0.0136040505 0.014190787 0.008640947 -0.005997939 -0.017591877 0.022328233 -0.016705567 -0.01295844 0.036861416 -0.01810244 -0.003073083 -0.035431292 -0.0020915426 0.028738458 -0.017292004 -0.009196335 0.019474106 0.047984384 0.021437777 -0.013330985 0.008360295 -0.01596843 -0.013483819 0.031776614 -0.024003347 -0.021518026 -0.0055215396 -0.013310504
028f26c89aace7ed79f0ee12ff5fdb13 0.020845324 -0.027290784 0.025812993 0.039706398 0.0065659974 -0.02991769 0.017978178 0.021801123 -0.044990182 0.0016923714 0.020600034 -0.04547063 -0.029876567 -0.034803137 0.025508868 0.048956808 -0.014289065 -0.015916556 0.00022586658 0.03661708 0.030171262 0.058427475 0.039619785 -0.06780073 -0.014991978 0.054956716 -0.033406425 -0.016507339 0.02287453 -0.027785879 0.010971971 0.002413905 -0.02738651 -0.031920236 -0.05177166 -0.006721097 0.01389289 0.0060810437 0.0074942023 0.0039122105 -0.012744658 0.005948638 -0.0016781641 -0.018938167 0.021798747 -0.033270177 0.0022369141 -0.045453526 -0.010336814 0.020703517 -0.01426529 0.0034027575 0.031030044 0.043823518 0.025864407 0.004222048 0.007051897 -0.040841613 -0.028559158 0.03320889 -0.009956641 -0.013062441 0.016281929 0.004445508
9c9ed24ba4b90bc89f2f8efdf930549c 0.020827752 -0.013222584 0.031563863 0.021209685 0.012254288 -0.06972488 0.029800393 0.008357296 -0.055090193 -0.013735031 0.018026643 -0.06289556 -0.044811185 -0.012587427 0.01783123 0.025062041 0.008862975 -0.00633431 0.0017621377 0.064466916 0.0153881945 0.064239874 0.03685247 -0.06619091 0.014981641 0.025194168 -0.024375925 0.009580824 0.005434385 -0.005799744 0.0059835003 0.0033670035 -0.025846446 -0.042902168 -0.064403854 0.006267378 0.0021059476 0.017677387 0.011188743 -0.010683307 0.01323681 0.026979297 -0.004556562 -0.0087817 0.037308358 -0.053132188 0.011741461 -0.04644034 -0.006884768 0.015286258 0.015936183 -0.007568405 0.027523905 0.04487772 0.02496711 -0.005670267 -0.004826938 -0.036466513 -0.028575873 0.034551896 -0.019472357 -0.012645605 -0.0069460636 0.015200086
62115cc528a65974cc0f4ccc0f2e3d36 0.034749486 -0.040403917 0.021605795 0.051745012 -0.0023936522 -0.060753867 0.019985896 -0.0045903483 -0.052918334 0.01567157 0.018203784 -0.04199194 -0.032519028 -0.021517185 -0.0028051976 0.059689004 -0.0173116 -0.014878372 -0.02543195 0.06271474 0.012914025 0.06176274 0.037177883 -0.07981547 0.0064804857 0.04886712 -0.02901788 -0.012529171 0.020265924 -0.03131664 0.016485488 0.01920119 -0.008997849 -0.020818606 -0.061956447 0.013879795 -0.00963703 0.011272555 0.021961512 0.009882516 0.005820921 0.007413281 -0.018328266 -0.03002846 0.033226095 -0.03351814 -0.01503308 -0.032274306 -0.011286674 0.011834865 -0.0097772945 0.0001267327 0.042238303 0.060827643 0.042366978 0.015367302 0.0021958884 -0.040933423 -0.013421348 0.039697498 -0.005200409 -0.0031420144 0.0029924978 0.0009779806
edd60f6c1f7267eab8af46f1ebd071e4 0.02552359 -0.012094259 0.03490038 0.02117269 0.0021363252 -0.0373468 0.03911829 0.011717927 -0.031760614 -0.00469819 0.046034228 -0.033387065 -0.035527874 -0.030911522 0.03111288 0.053419277 -0.019317593 -0.027223948 -0.013459928 0.05218162 0.031009668 0.050164483 0.040670082 -0.051744524 0.009100934 0.050637938 -0.03434867 0.009564435 0.038434815 -0.018267909 -0.0017085122 0.022499163 -0.041458543 -0.012543374 -0.052407723 0.01357786 -0.010954815 -0.0017010458 0.047323216 -0.001005189 -0.0016340005 0.023212148 0.0053779315 -0.02723134 0.018228238 -0.021237519 -0.02111526 -0.034315154 0.007175 0.01212608 -0.005658366 -0.02101015 0.024058053 0.054314993 0.008807005 -0.0031043314 0.022912906 -0.036115266 -0.023244577 0.036451574 -0.024658756 -0.026558883 0.016546123 -0.0041130325
8d2cb20f8d1e1fa5621f3af49320ebde 0.043757997 -0.025946392 0.023135213 0.039199624 0.0017208203 -0.037126955 0.017564079 0.016757702 -0.039000843 -0.008924799 0.036678076 -0.018099777 -0.034822356 -0.020728284 0.01745195 0.028069982 -0.007865844 -0.0046679266 0.0024731366 0.029558199 0.014499356 0.068628706 0.029057628 -0.07137196 0.0001192808 0.028031358 -0.027333027 -0.004260045 0.013284823 -0.026496021 0.012864301 0.022094479 -0.017636012 -0.022401506 -0.027143318 -0.011743782 0.011445528 0.0027031892 0.01070079 -0.011180358 0.0011464475 0.024334744 -0.004782705 -0.0378497 0.026327208 -0.0407471 -0.013350367 -0.016144022 0.0074144425 0.022604734 0.004765646 0.0035299994 0.0051037413 0.04222692 0.033367682 0.008978396 0.011099096 -0.034739867 -0.021936983 0.00790224 -0.005697962 -0.012878158 -8.095233e-05 -0.0038290443
68fa8d6a0b6c398b654a9740415e4ed9 0.037161745 -0.019074555 0.01844624 0.048055485 0.006042854 -0.041432746 0.02394964 -0.009442583 -0.05476872 -0.0028443781 0.032629598 -0.023985444 -0.021499382 -0.029925281 0.019415606 0.028163644 -0.010642556 -0.0060807234 0.0026702553 0.04390317 0.013224215 0.057718754 0.05162916 -0.04435942 0.0012507401 0.051659103 -0.014448145 -0.020962879 0.037373446 -0.017873263 -0.00571181 0.015639378 -0.005259555 -0.041435014 -0.032879 -0.015776508 -0.013015752 0.0128912935 0.013778795 0.014841962 0.011769883 0.03259451 -0.001431973 -0.038492925 0.03654989 -0.053734817 -0.006224784 -0.011719452 -0.013450088 0.029843522 -0.012859518 -0.012997592 0.03839017 0.044884373 0.036360484 0.010265983 0.006894265 -0.025775392 -0.0410808 0.033027902 -0.022480063 -0.0020717522 -0.010825722 0.0012340104
0b8f1f37b7ee1b2be5658ab3c9328b94 0.039323688 -0.027301116 0.001853675 0.017381473 -0.015272437 -0.02509336 0.029443722 -0.0060399235 -0.05496988 -0.0065378486 0.017481146 -0.035075426 -0.018717663 -0.015942357 0.03070609 0.042005643 0.010987125 -0.010598405 -0.0020885258 0.0486965 0.010114363 0.054180894 0.0402845 -0.07170353 0.011138455 0.024851289 -0.011507892 -0.0029325706 0.018620525 -0.025351785 0.013016542 0.00063998066 -0.03837964 -0.012609251 -0.04588615 -0.0066793077 0.009036938 0.011750941 0.03237512 0.020924946 0.010282911 -0.0023393566 0.00028766785 -0.0042604147 0.019278202 -0.031119283 -0.011922378 -0.039906733 0.009313015 0.023721209 0.0060961507 -0.010298071 0.032511767 0.032464117 0.011650689 0.0052432264 0.021780353 -0.041334078 -0.017586043 0.024859605 -0.030010397 -0.022307038 -0.007354725 0.00787732
ebb0dd78bff8ecfb1824a3b3f3c6202a 0.012781206 -0.023231544 0.013407343 0.025738074 0.014936599 -0.039806794 0.01706037 0.0026743647 -0.026241854 0.00032644434 0.028375035 -0.023403484 0.000869832 -0.012079973 0.0038537858 0.031181239 0.006613444 -0.011319409 -0.006804764 0.033024646 0.00802897 0.03879924 0.018578283 -0.04394177 0.0120048495 0.018793603 -0.014452663 -0.01352278 0.017061261 -0.004318615 0.00816411 -0.0053634574 -0.02144225 -0.004928767 -0.02030052 -7.911566e-05 -0.008126384 0.00019287373 -0.0023704094 0.0049001323 -0.008411967 0.0066885087 0.0011291855 -0.008734678 0.004294144 -0.017692763 -0.016114157 -0.024316879 0.0011317622 0.026038162 -0.010434731 0.00564804 0.024782319 0.03994186 0.023203947 -0.009927683 0.011585747 -0.0041480586 -0.006840219 0.017548662 -0.010165253 -0.0013194899 0.006619095 0.013151159
3249a55fae2a46ae403868528332361c 0.031522583 -0.04205274 0.036962103 0.021699572 0.002656355 -0.052552793 0.030232672 -0.003008109 -0.04495263 -0.011931114 0.03255885 -0.054851502 -0.04138645 -0.023225352 0.013844988 0.052867923 -0.010855981 -0.040003523 0.0044386173 0.04925734 0.024900109 0.081304066 0.03964412 -0.06455307 0.0040353998 0.049371153 -0.029314142 0.010585493 0.02435268 -0.025564935 0.0046152184 -0.00046688458 -0.013939008 -0.023326129 -0.038119838 0.0025731395 -0.0018012113 0.0033183869 0.01828429 0.02818733 0.011367926 0.018528609 -0.018642433 -0.04709198 0.043921735 -0.038866207 -0.01452649 -0.055045065 -0.015029644 0.029740024 -0.014851969 -0.0037069735 0.031271778 0.025104655 0.019623337 -0.00964367 -9.492724e-05 -0.03637531 -0.04985798 0.021865971 -0.028028753 -0.032902885 0.0021609974 0.0040819594
b5575120ac197d074912a5cee8a6e73c 0.03557765 -0.0008619459 0.002641201 0.0036824585 0.01395668 -0.017215807 0.028765097 -8.106919e-05 -0.032942463 -0.005788582 0.0044500367 -0.013929704 -0.02123553 -0.0003137639 -0.0033184134 0.03891082 -0.01401028 0.0040303837 -0.015133475 0.015098531 0.026507724 0.01821779 0.007736965 -0.0315318 -0.014933759 0.037317716 -0.013948616 -0.0148459375 0.017754115 -0.008526065 0.01450501 0.012934284 -0.023817291 -0.02347943 -0.015793936 -0.012994365 0.015145899 -0.0032379741 0.004968266 -0.0056789475 0.006942188 -0.0070328433 -0.00034898432 -0.022432612 0.033847164 -0.029339448 -0.017250031 -0.015492197 0.009895001 0.019292554 -0.0032265391 0.0063507636 -0.0017319394 0.019221697 0.007795669 0.006420539 -0.0047042076 -0.030997215 -0.02733274 0.02052898 -0.0051158485 0.004324855 0.0027389156 0.007233816
669bcf414ba8c3606bd299935898b750 0.036966313 -0.015917975 0.010848886 0.02875144 0.0015802295 -0.029299129 0.014668252 0.0048970627 -0.028381554 -0.0065049357 0.011774549 -0.026284613 -0.025169272 -0.019685624 0.00053474033 0.05097872 -0.0076938015 -0.013900897 -0.009010283 0.040145956 0.030185372 0.033639587 0.034010682 -0.066541925 0.015674913 0.04639867 -0.038117543 -0.005259108 0.010979189 -0.001837832 0.015433168 0.016457234 -0.0056316676 -0.035189897 -0.035348386 -0.009631979 -0.010200954 -0.004592811 0.016218899 -0.004953626 -0.00586133 0.013894897 -0.010595026 -0.03563066 0.038720302 -0.027702069 -0.021522913 -0.031200951 -0.018215137 0.03391008 -0.0023025265 0.014253616 0.026263285 0.029335715 0.0052669733 -0.0046215616 0.019455846 -0.03021927 -0.02505372 0.022137672 -0.026149938 -0.0065410705 -0.01170077 0.014807668
1ddeee438ad4eccedfdeefc7e8f951ef 0.011193667 -0.0065823677 0.012999505 0.021350868 -0.003879397 -0.033737157 0.026664952 0.006972824 -0.03235739 0.015340743 0.010938358 -0.043474182 -0.033143956 -0.010297925 0.00444451 0.020823479 0.00013128117 -0.028002156 -0.0041192104 0.050691538 0.027091563 0.0390326 0.0326359 -0.03911605 0.01887914 0.029996436 -0.023044802 -0.009139581 0.011967536 -0.013065035 0.0047484124 0.00270726 -0.010436803 -0.029535813 -0.043340024 -0.01960365 0.015380619 0.008578983 0.015891345 0.020461457 0.0028007652 -0.009593218 -0.01990022 -0.026222033 0.01283623 -0.013825566 0.00068263954 -0.022258345 -0.004669171 0.0053912466 0.011475062 -0.006082447 0.010263898 0.023007143 0.015210384 -0.012162446 0.013359067 -0.03723979 -0.008356167 0.008204857 -0.020114245 -0.012737185 -0.014634954 0.0066698873
fd87730a03ab753d82f8721d9a96838a 0.015653973 -0.017038612 0.0279498 0.023802957 0.00038792746 -0.014744517 0.01866686 0.01481863 -0.016006209 -0.011576066 0.020972138 -0.04116701 -0.019800646 -0.00085263856 0.0046406803 0.021526352 -0.0032390747 -0.0005048271 0.002852553 0.01950616 0.026631607 0.048599213 0.013957873 -0.044503428 -0.0005476133 0.015789352 -0.025456265 0.013166237 0.011164023 -0.023583889 -0.0061822794 -0.0058823116 -0.013296871 -0.012252707 -0.029549763 -0.0062494534 0.01630201 -0.013329482 0.0077921087 -0.012721659 0.015801568 0.006661099 -0.015222781 -0.028412977 0.034326043 -0.027003035 -0.015142386 -0.0166251 -0.015581009 0.031462356 0.008913459 -0.0061994116 0.009077236 0.030648611 -8.267555e-05 0.011049394 0.010602105 -0.011728725 -0.03189057 0.014228417 -0.020081257 -0.0005468064 0.017689226 -0.0013965322
95d78ebb3d6cf54076337e5486280bd5 0.01004113 -0.00993217 0.014782949 0.02612612 -0.008334714 -0.03210801 0.015228441 0.015986485 -0.04002348 -0.0028940341 0.016507456 -0.03280299 -0.01111629 -0.017543618 0.0029311834 0.014680947 -0.022940358 -0.008644005 -0.010937776 0.01834566 0.027237454 0.0515979 0.03595016 -0.04920362 -6.223546e-05 0.044546317 -0.032858286 -0.01395246 0.0023335044 -0.0061015147 -0.015638452 0.013037417 -0.005255595 -0.018936032 -0.048151895 0.009783389 0.01124581 -0.011726067 0.024125282 0.016511565 0.010745623 0.0005041175 0.002807015 -0.026544292 0.008701799 -0.017726412 -0.014166069 -0.028661817 -0.011381615 0.0058220234 -0.0032127257 0.002305276 0.015850894 0.041481793 0.022099776 -0.0115754055 -0.0074245324 -0.026089478 -0.0228394 0.0061629615 0.0026187375 -0.006281267 -0.013145038 0.0081610745
66b5da4c9da3d1af385767312868d1df 0.026718609 -0.031580854 0.01739175 0.03893738 -0.0072982353 -0.046479315 0.022388076 0.01115696 -0.025499796 -0.010540646 0.007697882 -0.03439334 -0.018431328 -0.016240066 0.012389446 0.030434348 -0.0077333497 -0.011762726 -0.010488943 0.048439365 0.021389486 0.06350818 0.024114227 -0.050136164 0.006674321 0.030310249 -0.011015488 0.007176326 0.024844864 -0.021622753 0.014358816 0.020247009 -0.022693561 -0.017846927 -0.027621735 0.010890084 0.007549575 0.005066756 0.01573158 -0.004435857 -0.012998164 0.007208774 -0.013705488 -0.020092385 0.026465617 -0.027099006 0.0020873672 -0.040772427 0.006012473 0.029557938 0.009964956 0.004434658 0.015894566 0.037000507 0.0071351416 -0.007933681 0.011986226 -0.02679764 -0.018376611 0.013721628 -0.0050572352 -0.021672288 0.00915548 -0.0071252114
24854deb93dd41e8f8b3c7d32798f6fc 0.021527039 -0.020040322 0.018114034 0.022889858 -0.006435064 -0.028453626 0.012194476 0.015462941 -0.042335503 0.019224873 0.033789866 -0.029793544 -0.031322572 -0.021810435 0.0010578166 0.030143352 0.0057392856 -0.032281727 -0.007180935 0.0456015 0.034982014 0.045147642 0.0376629 -0.07303904 0.004093479 0.05084824 -0.021726443 -0.00995465 0.016762378 -0.032551367 -0.00054549385 0.019084131 -0.035121117 -0.017461788 -0.043438293 0.0059418827 0.012960944 0.0078726355 0.018889384 -0.009133196 -0.009883981 0.013018761 -0.022878574 -0.0063073654 0.029147428 -0.03718436 0.0092634 -0.035739657 -0.0025954796 0.02253483 0.012568189 0.008725525 0.016369667 0.030433765 0.0072204736 0.012509268 0.016151262 -0.014837598 -0.015260488 0.007379664 0.0037890251 -0.03282881 0.0015606647 -0.0025980105
